/*
 * Copyright (c) 2024 EdgeImpulse Inc.
 *
 * Generated by Edge Impulse and licensed under the applicable Edge Impulse
 * Terms of Service. Community and Professional Terms of Service
 * (https://docs.edgeimpulse.com/page/terms-of-service) or Enterprise Terms of
 * Service (https://docs.edgeimpulse.com/page/enterprise-terms-of-service),
 * according to your product plan subscription (the “License”).
 *
 * This software, documentation and other associated files (collectively referred
 * to as the “Software”) is a single SDK variation generated by the Edge Impulse
 * platform and requires an active paid Edge Impulse subscription to use this
 * Software for any purpose.
 *
 * You may NOT use this Software unless you have an active Edge Impulse subscription
 * that meets the eligibility requirements for the applicable License, subject to
 * your full and continued compliance with the terms and conditions of the License,
 * including without limitation any usage restrictions under the applicable License.
 *
 * If you do not have an active Edge Impulse product plan subscription, or if use
 * of this Software exceeds the usage limitations of your Edge Impulse product plan
 * subscription, you are not permitted to use this Software and must immediately
 * delete and erase all copies of this Software within your control or possession.
 * Edge Impulse reserves all rights and remedies available to enforce its rights.
 *
 * Unless required by applicable law or agreed to in writing, the Software is
 * distributed on an "AS IS" BASIS, WITHOUT WARRANTIES OR CONDITIONS OF ANY KIND,
 * either express or implied. See the License for the specific language governing
 * permissions, disclaimers and limitations under the License.
 */
// Generated on: 07.09.2024 22:24:00

#include <stdio.h>
#include <stdlib.h>
#include "edge-impulse-sdk/tensorflow/lite/c/builtin_op_data.h"
#include "edge-impulse-sdk/tensorflow/lite/c/common.h"
#include "edge-impulse-sdk/tensorflow/lite/micro/micro_mutable_op_resolver.h"
#include "edge-impulse-sdk/porting/ei_classifier_porting.h"

#if EI_CLASSIFIER_PRINT_STATE
#if defined(__cplusplus) && EI_C_LINKAGE == 1
extern "C" {
    extern void ei_printf(const char *format, ...);
}
#else
extern void ei_printf(const char *format, ...);
#endif
#endif

#if defined (__GNUC__)  /* GNU compiler */
#define ALIGN(X) __attribute__((aligned(X)))
#define DEFINE_SECTION(x) __attribute__((section(x)))
#elif defined (_MSC_VER)
#define ALIGN(X) __declspec(align(X))
#elif defined (__TASKING__) /* TASKING Compiler */
#define ALIGN(X) __align(X)
#define DEFINE_SECTION(x) __attribute__(section(x)))
#elif defined (__ARMCC_VERSION) /* Arm Compiler */
#define ALIGN(X) __ALIGNED(x)
#define DEFINE_SECTION(x) __attribute__((section(x)))
#elif defined (__ICCARM__) /* IAR Compiler */
#define ALIGN(X) __ALIGNED(x)
#define DEFINE_SECTION(x) __attribute__((section(x)))
#elif defined (__clang__) /* LLVM/Clang Compiler */
#define ALIGN(X) __ALIGNED(x)
#define DEFINE_SECTION(x) __attribute__((section(x)))
#endif

#ifndef EI_MAX_SCRATCH_BUFFER_COUNT
#ifndef CONFIG_IDF_TARGET_ESP32S3
#define EI_MAX_SCRATCH_BUFFER_COUNT 14
#else
#define EI_MAX_SCRATCH_BUFFER_COUNT 28
#endif // CONFIG_IDF_TARGET_ESP32S3
#endif // EI_MAX_SCRATCH_BUFFER_COUNT

#ifndef EI_MAX_OVERFLOW_BUFFER_COUNT
#define EI_MAX_OVERFLOW_BUFFER_COUNT 10
#endif // EI_MAX_OVERFLOW_BUFFER_COUNT

using namespace tflite;
using namespace tflite::ops;
using namespace tflite::ops::micro;

namespace {

#if defined(EI_CLASSIFIER_ALLOCATION_STATIC_HIMAX) || defined(EI_CLASSIFIER_ALLOCATION_STATIC_HIMAX_GNU)
constexpr int kTensorArenaSize = 74400;
#else
constexpr int kTensorArenaSize = 73376;
#endif

#if defined(EI_CLASSIFIER_ALLOCATION_STATIC)
#if defined (EI_TENSOR_ARENA_LOCATION)
#define STRINGIZE(x) #x
#define STRINGIZE_VALUE_OF(x) STRINGIZE(x)
uint8_t tensor_arena[kTensorArenaSize] ALIGN(16) DEFINE_SECTION(STRINGIZE_VALUE_OF(EI_TENSOR_ARENA_LOCATION));
#else
uint8_t tensor_arena[kTensorArenaSize] ALIGN(16);
#endif
#elif defined(EI_CLASSIFIER_ALLOCATION_STATIC_HIMAX)
#pragma Bss(".tensor_arena")
uint8_t tensor_arena[kTensorArenaSize] ALIGN(16);
#pragma Bss()
#elif defined(EI_CLASSIFIER_ALLOCATION_STATIC_HIMAX_GNU)
uint8_t tensor_arena[kTensorArenaSize] ALIGN(16) __attribute__((section(".tensor_arena")));
#else
#define EI_CLASSIFIER_ALLOCATION_HEAP 1
uint8_t* tensor_arena = NULL;
#endif

static uint8_t* tensor_boundary;
static uint8_t* current_location;

template <int SZ, class T> struct TfArray {
  int sz; T elem[SZ];
};

enum used_operators_e {
  OP_CONV_2D, OP_DEPTHWISE_CONV_2D, OP_PAD, OP_ADD, OP_SOFTMAX,  OP_LAST
};

struct TensorInfo_t { // subset of TfLiteTensor used for initialization from constant memory
  TfLiteAllocationType allocation_type;
  TfLiteType type;
  void* data;
  TfLiteIntArray* dims;
  size_t bytes;
  TfLiteQuantization quantization;
};

typedef struct {
  TfLiteTensor tensor;
  int16_t index;
} TfLiteTensorWithIndex;

typedef struct {
  TfLiteEvalTensor tensor;
  int16_t index;
} TfLiteEvalTensorWithIndex;

TfLiteContext ctx{};
static const int MAX_TFL_TENSOR_COUNT = 4;
static TfLiteTensorWithIndex tflTensors[MAX_TFL_TENSOR_COUNT];
static const int MAX_TFL_EVAL_COUNT = 4;
static TfLiteEvalTensorWithIndex tflEvalTensors[MAX_TFL_EVAL_COUNT];
TfLiteRegistration registrations[OP_LAST];

namespace g0 {
const TfArray<4, int> tensor_dimension0 = { 4, { 1,48,48,1 } };
const TfArray<1, float> quant0_scale = { 1, { 0.0039215688593685627, } };
const TfArray<1, int> quant0_zero = { 1, { -128 } };
const TfLiteAffineQuantization quant0 = { (TfLiteFloatArray*)&quant0_scale, (TfLiteIntArray*)&quant0_zero, 0 };
const ALIGN(16) int32_t tensor_data1[4*2] = { 
  0, 0, 
  0, 1, 
  0, 1, 
  0, 0, 
};
const TfArray<2, int> tensor_dimension1 = { 2, { 4,2 } };
const ALIGN(8) int32_t tensor_data2[3] = { 18842, -32036, -38760, };
const TfArray<1, int> tensor_dimension2 = { 1, { 3 } };
const TfArray<3, float> quant2_scale = { 3, { 0.00019245878502260894, 0.00011646157508948818, 0.0001167272639577277, } };
const TfArray<3, int> quant2_zero = { 3, { 0,0,0 } };
const TfLiteAffineQuantization quant2 = { (TfLiteFloatArray*)&quant2_scale, (TfLiteIntArray*)&quant2_zero, 0 };
const ALIGN(16) int8_t tensor_data3[3*1*1*32] = { 
  /* [0][0][][] */ 22,29,73,-47,-19,32,-7,16,-28,39,36,19,-3,-55,31,-28,-35,127,125,76,-78,-43,-12,-57,-69,65,-18,0,47,-21,-14,-5, 
  /* [1][0][][] */ 63,-39,-63,23,-13,127,-17,-5,120,-58,-3,-99,-64,110,36,-54,92,-83,-33,-90,-116,23,115,74,32,25,-4,-9,-66,-50,1,-23, 
  /* [2][0][][] */ -30,77,-74,82,91,-41,-27,113,94,37,127,-6,-108,-85,90,121,-80,-86,-37,-111,76,122,-41,-83,105,-45,-21,-112,-18,-75,80,-18, 
};
const TfArray<4, int> tensor_dimension3 = { 4, { 3,1,1,32 } };
const TfArray<3, float> quant3_scale = { 3, { 0.0055586574599146843, 0.0033636812586337328, 0.003371354890987277, } };
const TfArray<3, int> quant3_zero = { 3, { 0,0,0 } };
const TfLiteAffineQuantization quant3 = { (TfLiteFloatArray*)&quant3_scale, (TfLiteIntArray*)&quant3_zero, 0 };
const ALIGN(16) int32_t tensor_data4[32] = { 745, 49, -582, -123, 165, 432, -409, 93, 192, -64, 106, 610, 156, 560, 305, -143, 414, 1124, 2688, -374, -207, -56, 700, 229, -240, -693, -505, -480, -195, -131, -759, -439, };
const TfArray<1, int> tensor_dimension4 = { 1, { 32 } };
const TfArray<32, float> quant4_scale = { 32, { 4.2377883801236749e-05, 4.2445721192052588e-05, 3.9421935071004555e-05, 4.2695977754192427e-05, 4.1879404307110235e-05, 4.0450991946272552e-05, 3.8989037420833483e-05, 4.3252472096355632e-05, 4.2550371290417388e-05, 4.8780253564473242e-05, 3.947136428905651e-05, 5.0591821491252631e-05, 4.7245513997040689e-05, 4.235256346873939e-05, 3.9785907574696466e-05, 4.1541956306900829e-05, 4.0187183913076296e-05, 5.5206561228260398e-05, 7.0923742896411568e-05, 3.8380367186618969e-05, 3.8814632716821507e-05, 4.2142695747315884e-05, 4.3124317016918212e-05, 4.183222699793987e-05, 4.8685127694625407e-05, 3.9702175854472443e-05, 3.9984945033211261e-05, 3.8721525925211608e-05, 4.549609002424404e-05, 4.0178518247557804e-05, 3.9409158489434049e-05, 3.9998209103941917e-05, } };
const TfArray<32, int> quant4_zero = { 32, { 0,0,0,0,0,0,0,0,0,0,0,0,0,0,0,0,0,0,0,0,0,0,0,0,0,0,0,0,0,0,0,0 } };
const TfLiteAffineQuantization quant4 = { (TfLiteFloatArray*)&quant4_scale, (TfLiteIntArray*)&quant4_zero, 0 };
const ALIGN(16) int8_t tensor_data5[32*1*1*96] = { 
  /* [0][0][][] */ -23,-47,105,21,100,-3,-64,-77,73,-79,-83,1,64,21,-24,58,-44,-16,-65,-38,-54,-102,15,97,-123,24,82,-37,93,7,2,-62,87,-43,-75,66,-96,-84,-69,37,80,-78,-70,107,46,-101,116,-28,4,-32,-34,28,-53,-27,-83,100,35,74,127,-91,-66,90,-76,58,3,27,69,101,61,100,98,-88,108,-105,52,94,-103,21,-50,31,61,17,92,16,-48,-23,-66,74,42,91,0,-92,29,37,48,0, 
  /* [1][0][][] */ -71,51,-53,-9,-37,60,37,4,74,-112,-92,83,50,-20,10,61,70,-71,28,101,-38,15,49,5,30,5,-50,115,24,24,88,-84,54,84,-12,36,60,61,-4,-83,-57,13,-22,-96,-50,25,-45,-39,-42,-89,117,64,22,78,-81,-55,37,75,75,75,-39,86,-47,-63,-43,25,73,19,97,17,-1,7,-118,84,-41,42,86,-44,-26,78,-65,80,-62,-127,34,106,-54,-37,86,78,73,11,61,106,22,-5, 
  /* [2][0][][] */ 32,25,-73,82,-34,-69,72,83,-119,76,-49,112,75,-28,68,-127,-76,-40,34,38,-110,-26,90,5,-43,70,89,-5,-81,66,69,79,-81,-34,-108,-114,-94,90,96,-57,-124,-90,-14,-23,-99,107,-35,-91,100,23,82,-105,-61,46,17,1,-75,75,-80,-8,-46,42,-30,56,81,30,38,72,-107,45,-6,-84,20,-79,17,16,-69,-24,-10,-2,23,-104,-6,-50,-16,-109,-34,-52,77,106,-33,-10,-56,-91,-55,-69, 
  /* [3][0][][] */ 72,43,44,-50,-58,42,-104,49,70,28,69,-26,93,98,77,15,80,81,-56,6,120,-61,-46,-100,13,-100,-73,126,49,-49,75,-3,-39,-27,-6,3,-54,-38,53,53,-19,-82,-83,11,71,9,-28,-52,44,-72,60,31,96,57,51,-87,-87,-107,-90,-50,-81,39,-38,68,63,-17,-46,-31,-25,-61,6,98,23,-100,66,-60,39,105,115,-35,-81,-127,35,69,35,50,-39,-85,-49,75,-10,-87,98,-66,-87,11, 
  /* [4][0][][] */ 43,127,18,29,-31,-28,25,0,74,66,1,38,27,-29,-9,-63,-45,-34,-77,11,119,-58,97,24,8,-21,43,-24,-37,73,-88,-53,74,103,17,-82,-8,-17,-97,57,-60,-61,-55,-69,34,85,17,68,-10,-44,10,-40,-69,68,-114,17,34,-95,21,27,35,-59,-25,-74,-38,60,13,-49,36,-93,-97,-76,-64,10,105,46,73,-32,25,-14,17,-45,-111,-37,0,64,83,37,-82,-15,32,48,34,106,-81,-37, 
  /* [5][0][][] */ 102,-93,81,87,48,-106,38,64,118,-101,8,-64,33,104,44,39,62,70,-81,103,36,44,22,-24,-127,-49,-6,-85,33,33,25,-88,-26,14,-58,22,-105,-56,51,34,-81,-62,57,106,-33,11,50,-65,-111,112,11,-31,44,28,25,-20,111,58,-41,-34,30,-52,-6,-62,-26,107,-25,40,79,11,116,-55,-33,53,-16,-69,2,-38,13,80,111,31,31,97,-74,81,0,12,74,-119,119,99,-2,-1,69,-112, 
  /* [6][0][][] */ 12,-48,110,72,-89,-63,-7,55,-24,-86,-2,-93,79,50,106,-125,34,-8,4,98,-87,-123,100,55,-61,-86,-14,-62,-26,-113,43,-86,-95,-127,-51,-109,-11,35,-117,68,80,56,16,-23,-114,108,-92,-53,-85,13,-31,-70,55,-56,98,-30,1,-16,-67,105,-104,-5,67,-73,-55,61,94,-54,70,-11,-114,-12,52,-72,-100,-43,-81,-93,-72,-37,28,-27,37,-22,-78,-66,-45,-103,77,92,93,11,-54,-65,71,-27, 
  /* [7][0][][] */ 100,94,-22,-49,-60,95,-9,9,118,-2,-78,1,55,-70,43,75,20,-21,-13,99,58,51,12,71,-61,90,38,75,-64,127,-22,18,31,23,67,102,-76,76,4,-22,89,-63,83,74,34,-22,87,-89,5,-54,-87,-49,-10,97,-4,24,117,-80,23,-47,22,-9,69,-92,-51,-43,68,16,-93,19,52,79,76,19,71,47,-49,52,-68,56,90,-38,-35,-95,94,30,-96,107,90,11,69,64,-54,-20,-13,-67, 
  /* [8][0][][] */ 17,44,-30,-83,62,25,-59,-6,25,41,50,82,12,-34,-69,-59,-64,91,-71,18,38,-20,84,104,-110,91,52,85,-67,40,-81,109,95,-22,51,7,127,-11,-7,82,77,93,-79,-94,-11,-41,-8,103,7,-79,-51,-10,-49,9,-45,-98,56,108,-69,100,115,49,12,106,-22,-32,-15,99,-70,61,37,7,80,52,22,13,-44,102,88,78,41,65,-112,-94,31,38,70,-31,49,-32,-80,105,-62,-93,-48,36, 
  /* [9][0][][] */ -1,5,108,41,58,-79,-35,-127,30,22,-14,43,-25,-61,-89,-21,16,-28,-78,-60,-2,101,-77,-86,76,-27,-9,34,11,-48,-77,85,41,-7,23,-17,-62,21,-47,-42,12,-40,55,-91,66,44,-102,53,44,-15,-64,-43,68,-54,-41,97,54,-52,-2,1,-46,81,71,-49,-68,-2,85,29,-28,88,76,-95,-6,68,-88,-71,-29,-112,-35,105,34,45,59,13,-12,-99,35,-11,71,9,-26,80,74,20,25,-17, 
  /* [10][0][][] */ -69,113,105,-77,-10,97,115,38,53,24,33,-86,104,91,-32,20,-70,49,-111,-66,-7,49,72,-78,29,51,-111,-87,-44,111,-96,-94,93,100,125,85,-22,1,-20,38,-32,118,-103,-23,-107,-79,-6,-50,-50,-2,48,18,72,41,-83,-40,-88,-13,49,-40,12,75,106,50,127,-66,-89,-25,29,-19,-101,-64,86,57,-64,98,-6,68,89,38,85,-7,39,73,-84,66,102,-2,51,13,-14,-63,-58,-30,-56,-78, 
  /* [11][0][][] */ 74,41,-4,91,93,23,53,20,66,62,-47,74,-11,-67,11,-17,-48,-88,79,47,12,70,16,-87,-31,-75,-28,62,80,-3,20,-16,-74,-62,36,47,-38,105,-10,-76,-16,115,-45,-8,-45,-34,-82,-34,55,81,107,117,-51,-73,30,16,-35,-49,26,-54,-36,56,96,21,29,57,-21,28,66,46,-82,-58,33,127,-69,72,-47,45,-44,81,-72,-15,-33,22,50,-46,12,22,-47,42,21,-92,-72,-2,-61,24, 
  /* [12][0][][] */ 10,58,-42,-1,77,7,-29,27,-66,46,-8,17,-40,8,37,-59,-82,-29,-32,-67,25,-14,16,84,-28,-43,83,-87,87,9,-25,96,-72,-60,-39,10,-19,-45,-18,22,97,44,-105,-41,-16,-43,-38,103,-30,-97,-58,98,37,-2,-58,70,-16,-53,37,61,52,91,9,46,97,27,-34,95,44,72,35,59,63,127,-18,11,-19,31,-93,-80,-45,93,46,30,-33,44,50,123,-78,-97,75,32,82,-13,31,86, 
  /* [13][0][][] */ 115,-60,100,102,99,115,80,73,87,-79,20,-18,97,74,77,-36,-94,-44,-68,47,77,-34,112,-31,-45,54,21,21,-94,-77,84,47,49,110,-9,44,-66,-39,31,84,-57,61,-31,26,-31,21,19,-16,31,108,-36,-124,-92,39,83,-68,-38,41,-25,-66,-23,127,-95,9,-40,-46,-77,98,-21,7,110,14,-69,22,-59,-36,-102,79,79,-51,59,-97,100,18,-76,-75,88,99,-2,-39,-53,67,127,-61,63,-35, 
  /* [14][0][][] */ -46,-54,101,57,89,-26,3,-97,-41,-28,86,65,-13,-63,-78,-66,-68,-65,-1,21,-23,51,19,55,-116,-61,-12,62,-104,-67,-72,39,117,-6,-18,21,109,105,47,-91,9,-107,51,110,50,-127,80,-77,70,42,86,52,110,18,-34,12,-26,22,72,106,8,-74,-45,84,-78,14,85,-94,-73,-92,-77,101,20,72,72,-77,73,-99,80,49,55,-30,-127,-63,-87,-84,-96,126,126,6,80,-36,90,118,-27,47, 
  /* [15][0][][] */ 5,8,-15,61,90,-86,64,-86,51,-10,-62,-4,92,0,-91,-99,63,-11,-102,21,51,31,85,98,82,56,27,113,33,82,61,-115,2,-3,-62,7,-40,108,118,-62,21,116,-38,-18,27,-92,-56,-59,-4,-85,15,56,-78,-85,-59,-11,76,47,-30,102,-26,-72,17,110,-19,92,-62,-10,-52,18,33,-69,6,-15,64,-103,4,54,119,89,-67,51,-116,-79,-106,-31,-85,65,100,84,-118,-41,47,127,-103,101, 
  /* [16][0][][] */ -51,-14,102,-43,51,119,-45,51,61,64,-96,81,2,-38,-36,-54,118,97,65,79,115,68,-37,63,-37,71,-53,59,-113,10,50,29,-90,91,67,59,-36,37,-45,-47,25,-57,86,102,70,96,120,-25,-56,-87,-12,78,-41,121,63,53,27,103,60,20,106,126,1,57,52,27,-35,108,53,114,-8,7,46,82,70,87,-18,102,-106,-17,21,-86,72,25,13,103,105,-15,75,-1,-1,127,92,-58,-78,10, 
  /* [17][0][][] */ 17,-83,48,78,-24,-69,-35,-86,-3,-78,72,43,68,52,-98,60,30,14,98,89,-75,9,8,-61,40,48,-70,25,113,-30,6,69,-22,-15,24,23,-39,99,-49,-62,-55,2,-14,-21,5,60,31,-62,55,82,20,63,11,55,106,-45,-69,46,-38,-73,40,-66,96,94,-41,-56,47,-67,-71,-20,70,26,9,-63,-44,96,127,-35,13,-30,24,25,-43,1,-60,71,71,-23,24,65,-41,-104,-16,89,43,53, 
  /* [18][0][][] */ -49,21,75,5,3,-54,-25,0,-10,39,-34,-25,-11,57,33,-5,9,-35,127,16,71,23,26,-90,-18,-22,-7,46,83,3,53,46,28,1,-43,-32,-65,107,-6,-29,8,32,-32,-19,-77,93,-8,-7,15,40,36,-47,-38,-22,89,50,-4,3,8,-44,54,48,80,61,-11,-64,29,71,56,-71,-18,74,-48,30,-36,20,70,61,-6,-29,-7,68,45,16,86,19,73,45,-50,-98,25,33,47,10,48,108, 
  /* [19][0][][] */ 9,24,72,34,54,-82,89,92,77,-72,22,-16,-103,25,-60,56,72,-110,99,61,-27,66,-59,5,62,-85,22,-74,-101,-127,-69,40,78,-90,28,-8,19,-71,-56,-104,43,-120,-99,9,-92,25,66,-102,-29,28,-33,20,-35,26,5,-21,9,94,-2,-39,51,-57,109,63,-71,-9,-30,-9,-13,52,64,-48,-70,-125,-62,-82,-35,-111,11,101,54,-125,-43,81,-104,-10,-5,0,90,46,-8,57,-39,112,93,-51, 
  /* [20][0][][] */ -19,92,69,100,-93,88,19,53,-8,-1,-91,-2,-17,82,32,-65,-36,-50,-73,-25,16,-28,-75,-70,102,-85,-116,54,42,17,-56,106,92,33,-20,56,48,-18,-15,-112,-90,-8,-91,-111,-17,-47,-93,125,59,-127,-72,100,53,111,62,8,89,69,104,88,123,-68,-30,-24,-23,-79,-43,10,-87,-47,-89,68,-75,-80,30,25,122,77,108,115,84,12,70,-31,65,126,-19,108,27,127,28,52,0,58,-8,16, 
  /* [21][0][][] */ 80,101,78,-115,95,-80,74,25,12,-66,-61,13,6,38,-45,-75,-127,-48,4,-19,108,-34,78,-78,55,-88,-25,92,14,42,-14,-37,12,17,-83,-95,125,77,-97,-13,-8,9,34,1,-96,-100,-72,95,-69,-71,6,93,42,87,-121,18,-37,52,-29,112,65,-70,1,-7,83,37,-28,-69,-95,-2,42,71,30,-30,82,50,-99,-23,78,112,16,76,13,-100,31,-90,54,-55,-82,82,87,-97,-43,-42,47,-46, 
  /* [22][0][][] */ 43,-55,-55,-64,91,-38,113,68,-72,91,-53,-98,117,-92,-90,-55,61,92,-80,-42,91,-72,31,34,67,12,-84,96,-61,-57,-40,-82,51,70,26,23,6,-25,-38,-85,1,-16,28,102,57,-97,103,-26,-67,-47,1,-57,-48,-77,-19,38,4,-10,-15,-20,120,-53,-107,-95,-54,29,-89,-21,119,127,-3,12,-44,-13,74,-59,37,-46,57,83,112,-91,-63,-80,83,84,97,-43,-44,4,-45,70,47,8,-19,79, 
  /* [23][0][][] */ 77,-88,-8,56,91,-92,-10,-80,68,-53,86,59,28,-96,35,-26,105,1,-92,101,97,-87,92,-22,-19,7,94,12,42,39,73,-13,-39,56,24,32,76,-36,-102,35,-100,-25,6,-88,-50,-84,127,13,69,-84,-92,-66,51,-64,-59,88,-68,-2,76,45,-118,-74,-64,-40,28,47,-107,-79,70,8,125,-57,8,-50,-31,-99,32,-25,89,95,-56,-66,36,-100,86,2,104,-35,-96,29,110,6,115,-60,-36,50, 
  /* [24][0][][] */ -68,-5,-71,-77,-63,-102,-54,-59,66,92,73,14,95,50,-27,-90,-81,17,3,-52,84,-54,-37,-29,47,-29,62,73,86,85,-6,-70,7,6,43,33,-15,-91,62,14,-62,-83,83,22,18,-54,39,61,-117,-43,-1,35,67,77,29,-60,9,71,31,3,94,4,13,82,-73,88,-32,-80,-77,49,-58,-17,-31,9,89,67,56,-57,-66,-60,-61,-99,-78,-127,2,52,-17,-63,37,-74,-14,-51,-10,38,-85,1, 
  /* [25][0][][] */ -85,-70,-98,-23,78,-87,-113,65,33,-108,-55,7,65,-8,-114,-27,-75,62,37,-113,48,75,-25,-65,9,-49,-103,21,64,-101,29,94,83,-116,39,54,93,-68,-20,-21,-96,88,-113,-6,90,36,68,26,-100,90,-81,-10,32,-40,-67,7,-34,43,-117,53,101,28,38,34,-10,58,-26,-17,-108,-11,-24,-124,36,-124,66,10,52,73,3,4,31,31,-45,76,-84,-51,-117,-98,-32,-42,94,11,-127,-34,-32,-90, 
  /* [26][0][][] */ 45,-117,-33,-24,-104,-13,-20,-57,-115,-127,94,78,-85,-52,6,-26,102,4,-76,-77,5,71,84,7,57,55,-10,41,12,-4,-98,-7,-33,-66,-107,-104,-80,74,-70,78,-105,92,50,11,-77,73,-55,88,-26,27,-17,99,0,-59,-11,-113,93,41,41,24,-9,-100,60,-31,98,-24,-70,47,-94,55,80,82,67,-103,-103,5,46,-111,-106,1,-39,71,90,-60,72,-3,-53,-11,-88,102,3,9,-59,98,47,84, 
  /* [27][0][][] */ 4,6,-71,-110,-127,-77,-77,-22,36,92,30,-114,-35,49,74,-33,62,-23,55,-89,-101,4,-33,-29,-109,38,-113,-7,58,21,-40,-17,53,61,-98,-95,-91,-72,-118,85,-102,12,26,13,92,20,62,99,87,60,53,-75,-96,-94,-13,-41,95,-30,-116,-85,-59,-69,-40,47,33,-54,-120,98,41,7,-125,0,55,-57,-15,-94,44,-54,85,99,78,-35,113,-5,-79,-87,-38,29,-55,-8,-42,-59,48,10,80,49, 
  /* [28][0][][] */ 72,-14,77,38,-112,-47,-94,-42,-12,-100,45,63,-79,-81,1,96,84,91,-56,63,-31,15,-101,-85,-76,60,-63,-72,-64,-43,-1,-21,-122,5,57,51,48,-77,-25,32,77,33,-58,45,-85,-2,5,54,21,-62,93,-30,-72,12,59,23,31,-13,65,40,-23,-45,-66,2,51,52,-12,66,-69,28,-97,-42,53,80,-2,-78,-102,41,-78,33,-66,-82,127,-1,50,-98,49,-52,-101,-17,-29,-67,-33,48,28,-41, 
  /* [29][0][][] */ 51,40,54,-47,-87,14,-122,2,100,-14,-90,-87,99,-103,-44,-47,-89,100,52,-61,-67,-32,45,4,-19,8,-39,-41,-89,-11,102,-1,45,-2,-80,-53,-21,114,-16,83,43,101,-54,71,2,116,-55,-22,32,-2,55,-92,65,-106,127,45,-95,49,-64,99,-115,90,-85,-55,-61,-66,54,83,92,-93,36,-71,102,88,50,33,114,-47,-38,26,-7,-65,14,-49,55,120,41,78,-44,95,71,73,-92,20,6,82, 
  /* [30][0][][] */ 16,-64,-74,19,-103,14,-69,-13,103,-26,-4,-46,-110,4,46,4,-18,29,79,-117,27,-106,-120,4,-111,12,-81,112,-19,-107,-96,-3,-94,-80,-127,-64,14,-31,-6,24,89,-84,-19,91,88,-58,89,52,-70,57,13,-103,88,-53,-26,88,-82,-61,-82,-57,-111,-14,-77,-34,-114,-93,-104,77,-72,94,30,-44,-98,94,36,-98,-67,-78,-79,-69,16,9,-111,-24,-111,15,-113,94,-38,-119,60,45,-48,-17,3,-85, 
  /* [31][0][][] */ 76,-99,33,92,42,56,-64,-104,-36,-26,-83,-90,91,-125,-50,108,-61,-98,57,37,57,32,-40,96,39,-119,31,32,-72,-74,42,103,9,14,-96,-13,84,-38,-73,-115,51,-75,-33,24,-3,-52,-46,18,58,23,82,-33,-120,-62,-80,18,-120,61,-4,107,-38,-9,84,-79,59,104,-46,-79,68,-125,-127,1,-101,-51,-3,6,-62,-60,39,81,-80,-42,52,70,52,86,-101,13,9,-63,-87,-60,15,110,-20,-28, 
};
const TfArray<4, int> tensor_dimension5 = { 4, { 32,1,1,96 } };
const TfArray<32, float> quant5_scale = { 32, { 0.0019813249818980694, 0.0019844966009259224, 0.0018431232310831547, 0.0019961970392614603, 0.0019580191001296043, 0.0018912354717031121, 0.0018228837288916111, 0.0020222151651978493, 0.0019893893040716648, 0.0022806597407907248, 0.001845434308052063, 0.0023653572425246239, 0.0022089048288762569, 0.0019801410380750895, 0.0018601402407512069, 0.0019422421464696527, 0.001878901501186192, 0.0025811137165874243, 0.0033159509766846895, 0.0017944261198863387, 0.0018147295340895653, 0.0019703290890902281, 0.0020162235014140606, 0.0019558134954422712, 0.0022762122098356485, 0.0018562255427241325, 0.0018694460159167647, 0.0018103764159604907, 0.0021271128207445145, 0.0018784963758662343, 0.0018425259040668607, 0.0018700662767514586, } };
const TfArray<32, int> quant5_zero = { 32, { 0,0,0,0,0,0,0,0,0,0,0,0,0,0,0,0,0,0,0,0,0,0,0,0,0,0,0,0,0,0,0,0 } };
const TfLiteAffineQuantization quant5 = { (TfLiteFloatArray*)&quant5_scale, (TfLiteIntArray*)&quant5_zero, 0 };
const ALIGN(16) int32_t tensor_data6[96] = { 1569, -186, 3299, 5461, 4718, -2908, 3470, -1341, -2111, -842, 6433, -3312, 5739, 7312, 1787, 2824, -647, -322, -2321, 6634, 2303, -644, 2121, -271, -1065, 3393, 1319, 2108, 5006, 1870, 4465, 1221, 2073, 6803, 4496, 3319, -652, 4234, 2677, -3750, -406, 1674, -65, 2035, -1346, 643, -1211, 866, -7405, 1560, 1044, -2978, 6359, -896, 3755, 1370, 1151, 2794, -877, -2681, 297, 1685, 512, 3695, 4594, 4441, 3389, 4773, 3815, -940, 3265, 6537, 3852, -2070, 4844, 7744, 852, -3622, 650, 1288, 8360, 2296, -336, -2061, 975, 940, 1957, -2005, 4160, -491, 4676, 1465, 359, -3980, -38, 2643, };
const TfArray<1, int> tensor_dimension6 = { 1, { 96 } };
const TfArray<96, float> quant6_scale = { 96, { 0.00013463593495544046, 0.00025688990717753768, 0.00017842528177425265, 0.00014353737060446292, 0.00013893668074160814, 0.00014401978114619851, 0.00016113732999656349, 0.00017982214922085404, 0.0001887107064248994, 0.00020438860519789159, 9.8917989816982299e-05, 0.00013987136480864137, 9.8138720204588026e-05, 8.2508951891213655e-05, 0.00015512415848206729, 0.00014377724437508732, 0.00018252452719025314, 0.00018870984786190093, 0.00012553393025882542, 9.3453629233408719e-05, 0.00018687792180571705, 0.0002276062878081575, 0.0001618990208953619, 0.00018333170737605542, 0.00019686343148350716, 0.00018335790082346648, 0.00019047809473704547, 0.0001679373235674575, 0.0001447217509848997, 0.00020681037858594209, 0.00011276187433395535, 0.0001968429860426113, 0.00014227234350983053, 9.294457413488999e-05, 0.00014399447536561638, 0.0001465976529289037, 0.00014854033361189067, 0.00011246385838603601, 0.00012061446614097804, 0.00013769774523098022, 0.0001294945104746148, 0.00014531271881423891, 0.00020465985289774835, 0.0001478089252486825, 0.00015238934429362416, 0.00012141903425799683, 0.00018622660718392581, 0.00014938748790882528, 9.4642782642040402e-05, 0.0001745684421621263, 0.0002151674561901018, 0.00014889761223457754, 0.00011083116987720132, 0.00020107724412810057, 0.00012450569192878902, 0.00018074152467306703, 0.00014170592476148158, 0.00014942491543479264, 0.00020439212676137686, 0.00011395447654649615, 0.00018400250701233745, 0.0001500575162936002, 0.00022900503245182335, 0.00017592907533980906, 0.00013861969637218863, 9.8729287856258452e-05, 0.0001113364050979726, 0.00015292750322259963, 0.00017343882063869387, 0.00014661940804217011, 0.00015704921679571271, 0.00010710401693359017, 0.00011816719052148983, 0.00011575291864573956, 0.00014469503366854042, 0.00010546515841269866, 0.00014607601042371243, 0.0001661717687966302, 0.00017941495752893388, 0.00016073173901531845, 0.00010396308789495379, 0.00013161492825020105, 0.00017583392036613077, 0.00018946202180813998, 0.00018339954840485007, 0.00013552993186749518, 0.00015183424693532288, 0.00016931050049606711, 0.00015069906658027321, 0.00017524667782709002, 0.00012610158591996878, 0.00017736548034008592, 0.00020308871171437204, 0.0001092450474970974, 0.00022515103046316653, 0.00011750799603760242, } };
const TfArray<96, int> quant6_zero = { 96, { 0,0,0,0,0,0,0,0,0,0,0,0,0,0,0,0,0,0,0,0,0,0,0,0,0,0,0,0,0,0,0,0,0,0,0,0,0,0,0,0,0,0,0,0,0,0,0,0,0,0,0,0,0,0,0,0,0,0,0,0,0,0,0,0,0,0,0,0,0,0,0,0,0,0,0,0,0,0,0,0,0,0,0,0,0,0,0,0,0,0,0,0,0,0,0,0 } };
const TfLiteAffineQuantization quant6 = { (TfLiteFloatArray*)&quant6_scale, (TfLiteIntArray*)&quant6_zero, 0 };
const ALIGN(16) int8_t tensor_data7[96*1*1*16] = { 
  /* [0][0][][] */ -12,73,-84,4,42,-39,91,63,-46,0,34,-94,65,127,-53,28, 
  /* [1][0][][] */ -28,13,-56,-22,-25,47,18,-127,24,-36,-22,-50,-7,-44,-49,-2, 
  /* [2][0][][] */ -29,-30,22,61,20,47,-98,127,-25,3,69,-63,-19,-65,-52,70, 
  /* [3][0][][] */ 97,-88,98,-10,6,-22,-40,127,-20,76,56,62,-5,58,5,-10, 
  /* [4][0][][] */ -45,-28,-20,27,-82,23,-21,-110,-18,-23,35,-26,26,71,97,127, 
  /* [5][0][][] */ 127,13,-29,-33,-83,17,38,82,14,-12,77,105,122,32,-97,2, 
  /* [6][0][][] */ -6,-72,-84,-68,-105,10,1,-38,-57,-50,-43,22,82,54,127,-8, 
  /* [7][0][][] */ -53,34,-13,-74,16,-56,-65,17,-84,48,-52,-55,-127,-24,16,87, 
  /* [8][0][][] */ 33,37,82,7,52,35,67,-1,74,-11,20,-2,-127,-32,-76,11, 
  /* [9][0][][] */ -38,66,30,-35,-33,-12,26,-15,-42,54,-45,17,40,127,24,24, 
  /* [10][0][][] */ 56,40,-46,36,-44,-5,59,-44,-67,-38,-51,-119,-127,-61,-9,106, 
  /* [11][0][][] */ 43,0,61,18,-27,-26,15,121,-96,26,-45,-6,-13,-8,67,127, 
  /* [12][0][][] */ -77,-30,-9,0,6,18,127,45,-71,32,-12,-29,-24,82,-58,115, 
  /* [13][0][][] */ -25,27,26,74,80,88,115,88,-34,116,-127,-105,54,34,-115,-46, 
  /* [14][0][][] */ -100,119,17,-31,12,-21,60,-6,-35,45,127,5,-103,42,-24,41, 
  /* [15][0][][] */ 8,-5,-127,-38,102,-45,-95,-32,-29,-25,-13,-50,4,-69,-53,38, 
  /* [16][0][][] */ 108,-27,0,-21,24,-26,50,-19,-42,3,127,33,55,10,-39,21, 
  /* [17][0][][] */ 7,4,-24,-87,9,-60,127,-106,13,-11,-42,18,41,88,4,59, 
  /* [18][0][][] */ 46,127,-32,-43,69,-88,-53,-72,-63,117,-40,18,-11,54,-3,-52, 
  /* [19][0][][] */ -89,-127,110,-117,36,-120,43,-44,57,39,85,102,20,-7,57,-33, 
  /* [20][0][][] */ -28,81,53,6,10,15,26,-23,58,-4,91,-35,-127,-18,-80,0, 
  /* [21][0][][] */ -55,35,14,34,66,16,54,59,-127,52,-44,33,-1,-11,-42,-48, 
  /* [22][0][][] */ 9,-89,34,-4,26,-127,113,-2,28,-53,-37,-75,35,-78,-66,-37, 
  /* [23][0][][] */ -61,-92,40,39,17,-10,32,-38,7,-34,56,-6,-7,82,64,127, 
  /* [24][0][][] */ 4,2,2,84,33,23,-60,-127,63,19,-37,18,7,-11,-17,-28, 
  /* [25][0][][] */ -15,26,13,-52,-32,1,15,-23,-17,50,-36,-18,30,127,12,15, 
  /* [26][0][][] */ -67,72,16,11,27,-84,-1,-34,17,23,2,53,-4,12,-87,127, 
  /* [27][0][][] */ -35,-127,-58,15,-71,99,-6,-64,7,-28,47,-32,30,-65,-98,-23, 
  /* [28][0][][] */ -23,8,34,104,28,10,-41,-127,-109,43,91,-11,81,4,-29,-42, 
  /* [29][0][][] */ -127,107,-36,-16,-43,29,-116,-81,-44,-30,-16,-8,13,-71,-110,60, 
  /* [30][0][][] */ 72,94,-47,67,-94,-99,-78,-18,-22,15,22,-107,127,54,-11,97, 
  /* [31][0][][] */ 127,38,-51,-1,-54,23,88,16,-59,-21,53,50,50,2,-13,-5, 
  /* [32][0][][] */ -52,-25,127,18,-37,100,79,16,-31,-13,-23,11,9,67,71,32, 
  /* [33][0][][] */ -20,16,-80,-58,-33,38,127,29,0,-12,23,-77,79,121,-48,54, 
  /* [34][0][][] */ -108,-38,82,17,11,-46,104,-5,-127,28,33,-53,42,44,-52,-23, 
  /* [35][0][][] */ -11,15,-62,19,-73,127,-25,-10,-26,108,2,73,-67,71,9,34, 
  /* [36][0][][] */ -25,-103,127,-51,-80,28,-51,-21,9,22,-70,89,6,-118,-53,57, 
  /* [37][0][][] */ 75,-17,54,-16,103,-71,-59,33,-55,127,-64,5,-73,-54,100,-35, 
  /* [38][0][][] */ 39,52,14,-105,-36,-41,-112,45,-90,72,-118,-57,-64,-127,-112,58, 
  /* [39][0][][] */ -91,11,-75,-44,-74,-88,72,9,-127,-31,34,91,24,1,1,56, 
  /* [40][0][][] */ 127,58,-8,-91,-109,59,30,-34,-66,-41,-57,-122,34,73,44,42, 
  /* [41][0][][] */ 79,-103,-86,-49,-6,-6,-70,-17,70,-13,5,-53,127,-99,70,-48, 
  /* [42][0][][] */ -23,-100,-44,127,-7,-87,-97,27,-10,-20,9,53,-104,93,-89,13, 
  /* [43][0][][] */ -82,-38,-46,-127,-47,-1,2,75,31,-116,-30,30,-19,-36,-28,102, 
  /* [44][0][][] */ -47,14,17,-57,-38,-23,43,127,82,-83,70,79,98,60,-19,10, 
  /* [45][0][][] */ 36,87,-71,98,127,-90,-54,-78,96,-64,58,-47,-8,8,-54,46, 
  /* [46][0][][] */ -6,-32,7,-25,106,-27,35,14,4,113,-21,-127,28,70,-49,79, 
  /* [47][0][][] */ 70,-47,-40,-9,64,-2,-44,-69,-3,120,-34,21,-16,-127,-80,17, 
  /* [48][0][][] */ 9,17,-13,-127,-16,-46,119,-126,-2,-2,-51,30,42,68,-23,40, 
  /* [49][0][][] */ -17,127,-65,24,43,-43,54,40,-15,36,25,-80,-32,65,127,-101, 
  /* [50][0][][] */ 14,46,-21,-1,-127,-1,-73,-63,49,70,26,29,-36,-41,-2,36, 
  /* [51][0][][] */ 127,-53,-72,-30,-69,105,-89,-52,59,-22,-55,56,-37,-87,-15,55, 
  /* [52][0][][] */ -44,-59,38,105,-60,-94,-127,-27,-50,-57,-54,-81,23,-89,3,80, 
  /* [53][0][][] */ -2,91,52,-101,-6,127,74,-29,-14,-11,-30,-42,77,-116,-1,24, 
  /* [54][0][][] */ 31,117,8,-21,9,-85,-119,41,15,-18,-56,127,91,78,21,42, 
  /* [55][0][][] */ -26,-1,56,30,56,-38,96,79,-70,-8,14,14,127,47,-26,-5, 
  /* [56][0][][] */ 99,5,14,39,-57,127,-44,-65,-34,50,-92,-12,-58,94,-16,37, 
  /* [57][0][][] */ -62,-50,-69,-56,-90,-95,59,-12,-127,-26,52,41,24,34,-7,61, 
  /* [58][0][][] */ 59,-55,52,33,1,-66,-17,26,7,-23,-127,-31,28,-27,-25,49, 
  /* [59][0][][] */ 60,-2,-127,97,-5,56,80,-25,-88,-54,11,-115,-114,-62,22,95, 
  /* [60][0][][] */ -16,18,-26,13,-34,-29,-19,21,-42,-88,67,126,-50,-127,-46,10, 
  /* [61][0][][] */ -24,33,90,-93,-63,59,-9,113,-16,-82,53,64,90,3,25,127, 
  /* [62][0][][] */ 70,47,-26,-127,-35,21,17,-35,-17,34,-47,40,25,-24,-88,-70, 
  /* [63][0][][] */ -21,-37,-6,-6,-84,-59,-49,4,-66,-11,-43,-34,127,-9,41,-9, 
  /* [64][0][][] */ 35,0,-12,61,-92,-48,-30,-108,72,127,33,-5,34,-54,-46,105, 
  /* [65][0][][] */ -40,0,-18,-29,-81,84,22,-32,49,-121,94,-81,63,74,-127,72, 
  /* [66][0][][] */ -103,109,-81,-63,53,-28,-121,-73,-79,127,88,22,-85,-65,56,38, 
  /* [67][0][][] */ 3,-35,-124,-127,73,74,14,-27,-27,-4,52,-29,27,53,23,62, 
  /* [68][0][][] */ 62,19,-6,-50,-44,22,23,45,-59,52,127,-11,-7,-11,-100,12, 
  /* [69][0][][] */ 80,-105,35,-70,17,-123,-28,127,-2,58,88,90,-23,95,-26,-6, 
  /* [70][0][][] */ 57,-12,109,19,100,-27,127,12,47,18,-63,23,-71,79,-71,46, 
  /* [71][0][][] */ -3,20,78,-55,-127,-63,13,5,-21,-11,8,-99,-69,-9,9,25, 
  /* [72][0][][] */ -68,-98,18,-96,58,-2,7,38,-69,13,-127,-29,48,99,-62,118, 
  /* [73][0][][] */ 16,12,39,-2,127,-98,-43,10,-33,95,-81,37,-88,-51,126,-11, 
  /* [74][0][][] */ -118,2,-127,-48,39,-23,-35,15,-78,0,-110,-49,-36,-71,-36,71, 
  /* [75][0][][] */ 78,-24,41,-29,5,16,-127,-26,-4,-89,51,1,3,-31,2,-19, 
  /* [76][0][][] */ 5,-6,-26,127,50,101,93,-53,76,-127,70,114,49,-91,-52,16, 
  /* [77][0][][] */ -37,-34,127,-17,23,-29,-10,-105,25,20,27,68,35,43,3,11, 
  /* [78][0][][] */ -59,5,-4,-20,-13,-29,27,-19,14,-10,2,-99,-86,-82,-127,-40, 
  /* [79][0][][] */ -127,-87,-41,38,88,45,-8,15,10,24,-36,28,-42,-97,-79,1, 
  /* [80][0][][] */ -8,-127,37,96,-38,-24,-91,87,-18,19,71,-7,-86,2,-32,81, 
  /* [81][0][][] */ 93,54,-7,118,4,46,17,127,12,12,93,58,117,9,71,-33, 
  /* [82][0][][] */ -50,-2,15,-44,45,-116,-98,-70,4,61,-43,-46,-39,127,-82,-30, 
  /* [83][0][][] */ 100,-10,79,-20,-27,-10,-127,-19,16,-104,5,-30,-10,-4,22,-48, 
  /* [84][0][][] */ 19,-56,-83,21,127,35,38,26,-102,29,-90,-18,29,-23,-70,11, 
  /* [85][0][][] */ 1,86,52,-52,93,-5,57,-114,127,-55,39,-26,111,-106,28,14, 
  /* [86][0][][] */ 127,-30,125,42,14,-59,85,45,-56,-60,-83,-48,31,29,-76,21, 
  /* [87][0][][] */ 0,12,17,-78,76,-27,-42,20,38,-34,82,-44,-87,-127,5,21, 
  /* [88][0][][] */ -65,-35,29,7,11,34,-57,-39,-13,12,-72,-127,-37,-43,-20,-11, 
  /* [89][0][][] */ -65,14,5,-65,11,3,-127,13,84,28,-70,-12,-7,-85,-37,-25, 
  /* [90][0][][] */ -23,-17,-36,-75,127,27,-46,38,53,57,23,-28,27,12,-84,-18, 
  /* [91][0][][] */ -28,-43,10,17,-19,-19,-1,58,-27,-44,47,-29,-12,65,14,127, 
  /* [92][0][][] */ -20,60,-5,-26,-18,43,-71,46,-35,-23,68,-5,-38,127,46,36, 
  /* [93][0][][] */ 5,104,-72,-71,80,97,-114,7,78,71,100,82,-127,5,-47,67, 
  /* [94][0][][] */ 47,71,103,16,-127,-46,20,0,24,-23,42,-13,-60,-22,36,-29, 
  /* [95][0][][] */ -6,48,15,16,127,-13,-109,87,19,-3,-74,110,-3,5,111,-54, 
};
const TfArray<4, int> tensor_dimension7 = { 4, { 96,1,1,16 } };
const TfArray<96, float> quant7_scale = { 96, { 0.001758653437718749, 0.0033555699046701193, 0.0023306424263864756, 0.0018749265000224113, 0.0018148310482501984, 0.0018812278285622597, 0.0021048223134130239, 0.0023488886654376984, 0.0024649936240166426, 0.0026697828434407711, 0.0012920952867716551, 0.0018270399887114763, 0.0012819162802770734, 0.0010777557035908103, 0.0020262764301151037, 0.0018780598184093833, 0.0023841878864914179, 0.0024649824481457472, 0.0016397603321820498, 0.0012207182589918375, 0.0024410532787442207, 0.0029730589594691992, 0.0021147716324776411, 0.0023947316221892834, 0.0025714868679642677, 0.0023950736504048109, 0.0024880797136574984, 0.0021936458069831133, 0.0018903971649706364, 0.0027014168445020914, 0.0014729280956089497, 0.0025712198112159967, 0.0018584023928269744, 0.0012140688486397266, 0.001880897325463593, 0.0019149007275700569, 0.0019402765901759267, 0.0014690352836623788, 0.001575500937178731, 0.0017986476887017488, 0.0016914946027100086, 0.0018981165485456586, 0.0026733260601758957, 0.0019307228503748775, 0.0019905534572899342, 0.0015860104467719793, 0.0024325456470251083, 0.0019513423321768641, 0.0012362513225525618, 0.0022802632302045822, 0.0028105792589485645, 0.0019449435640126467, 0.0014477086951956153, 0.0026265289634466171, 0.0016263292636722326, 0.0023608978372067213, 0.0018510036170482635, 0.0019518313929438591, 0.0026698289439082146, 0.0014885062118992209, 0.0024034937378019094, 0.0019600945524871349, 0.0029913296457380056, 0.0022980363573879004, 0.0018106905044987798, 0.0012896304251626134, 0.0014543081633746624, 0.0019975830800831318, 0.0022655078209936619, 0.0019151850137859583, 0.0020514221396297216, 0.0013990235747769475, 0.0015435338718816638, 0.0015119980089366436, 0.001890048268251121, 0.0013776163104921579, 0.0019080869387835264, 0.0021705834660679102, 0.0023435698822140694, 0.0020995242521166801, 0.0013579957885667682, 0.001719192136079073, 0.0022967932745814323, 0.0024748074356466532, 0.00239561777561903, 0.0017703310586512089, 0.0019833026453852654, 0.0022115826141089201, 0.001968474593013525, 0.0022891226690262556, 0.0016471752896904945, 0.0023167990148067474, 0.0026528032030910254, 0.0014269902603700757, 0.0029409877024590969, 0.0015349233290180564, } };
const TfArray<96, int> quant7_zero = { 96, { 0,0,0,0,0,0,0,0,0,0,0,0,0,0,0,0,0,0,0,0,0,0,0,0,0,0,0,0,0,0,0,0,0,0,0,0,0,0,0,0,0,0,0,0,0,0,0,0,0,0,0,0,0,0,0,0,0,0,0,0,0,0,0,0,0,0,0,0,0,0,0,0,0,0,0,0,0,0,0,0,0,0,0,0,0,0,0,0,0,0,0,0,0,0,0,0 } };
const TfLiteAffineQuantization quant7 = { (TfLiteFloatArray*)&quant7_scale, (TfLiteIntArray*)&quant7_zero, 0 };
const ALIGN(16) int32_t tensor_data8[16] = { 2031, 7205, -936, -575, -5910, 10317, 5210, 1167, 15848, -8729, -9769, 2043, -17503, 9259, -906, 15617, };
const TfArray<1, int> tensor_dimension8 = { 1, { 16 } };
const TfArray<16, float> quant8_scale = { 16, { 4.4965505367144942e-05, 8.3047678344883025e-05, 4.3157178879482672e-05, 7.1265363658312708e-05, 7.7241878898348659e-05, 9.1713052825070918e-05, 6.5573396568652242e-05, 5.9842641348950565e-05, 0.0001038226910168305, 7.6240408816374838e-05, 7.4255978688597679e-05, 7.2021975938696414e-05, 8.8755346951074898e-05, 8.0438003351446241e-05, 0.00010150023445021361, 0.00010475160524947569, } };
const TfArray<16, int> quant8_zero = { 16, { 0,0,0,0,0,0,0,0,0,0,0,0,0,0,0,0 } };
const TfLiteAffineQuantization quant8 = { (TfLiteFloatArray*)&quant8_scale, (TfLiteIntArray*)&quant8_zero, 0 };
const ALIGN(16) int8_t tensor_data9[16*1*1*96] = { 
  /* [0][0][][] */ -111,63,45,-42,-66,-31,-85,-4,-24,29,22,-41,47,51,21,-37,6,0,127,23,37,-77,126,86,65,35,24,52,-81,-124,-78,23,-47,-35,34,33,-19,60,1,62,-2,1,-95,31,-105,-30,-4,89,2,30,-66,-24,16,-34,28,-67,-122,20,-2,116,99,26,19,0,-39,-93,-53,60,-48,-49,13,14,-17,27,-94,-55,-37,11,-36,7,-57,100,103,-88,-6,74,34,76,26,-11,-3,-66,-27,-46,-53,20, 
  /* [1][0][][] */ 37,19,4,-44,-64,-19,-19,6,1,33,88,-48,16,10,-77,-25,-13,-9,-46,41,-4,-84,15,52,7,-46,6,-26,66,-94,117,-60,64,47,-30,52,19,82,-22,-11,35,24,-11,1,7,76,-127,-54,-43,-31,-13,-24,52,-57,-44,51,21,16,-21,12,33,38,-3,-94,-4,-34,-61,0,15,13,-85,8,-74,-4,18,-75,17,12,33,-66,-15,-20,-79,-42,20,-34,-13,20,-75,3,-43,18,22,67,-46,59, 
  /* [2][0][][] */ 95,-37,21,30,34,-85,78,20,13,-26,-27,-1,-81,-41,19,-35,-113,-46,-44,31,30,-45,-71,48,-5,-75,-7,-14,-40,63,-68,127,-68,120,-31,26,-10,-24,-6,-10,-106,79,78,31,-86,-1,-25,-29,34,-3,-36,-49,72,-20,-32,61,43,-1,41,-24,-5,50,-49,15,65,35,-17,-7,22,63,-41,8,55,49,74,29,43,-72,69,53,89,-21,-71,42,-75,11,20,73,9,7,-36,44,-42,46,-9,42, 
  /* [3][0][][] */ 7,-7,-35,19,23,-28,-8,-58,-12,93,72,63,32,-5,-67,50,1,-32,55,14,10,127,7,-45,17,22,2,8,83,-46,72,-16,-14,57,-17,-37,21,64,32,24,-91,-32,-39,32,-28,46,17,0,-12,-40,-12,-27,52,-96,-23,-57,3,111,-26,5,6,-18,-25,-1,29,36,-34,12,-3,17,6,-60,-58,-32,29,-1,22,16,-27,-49,-32,1,-75,6,-18,-48,45,-35,0,31,36,-37,58,39,-36,72, 
  /* [4][0][][] */ 32,34,-57,18,43,9,-54,21,-13,93,122,-16,-1,13,-10,-57,0,-9,-46,46,44,-59,47,86,-63,23,-127,40,-51,-56,28,1,-69,-53,7,68,5,46,31,37,-28,-46,56,-14,-20,17,-27,52,-42,67,10,16,68,-46,-75,29,57,-10,15,4,66,-10,36,-6,-59,20,-46,37,-54,46,-50,62,29,-48,-57,-65,37,-44,-4,13,-37,110,-85,1,-27,28,25,-39,63,20,30,-4,-48,-29,32,8, 
  /* [5][0][][] */ -84,7,63,22,56,-23,63,-25,-26,29,-2,-17,34,-21,2,-25,-9,-26,58,26,-127,-14,-96,47,-46,-29,39,5,67,-69,-48,68,58,126,-16,19,1,0,25,-21,-34,89,74,-28,24,83,43,1,-20,21,-22,46,3,-36,39,-92,16,-70,-72,-71,36,90,-54,-11,92,-32,-97,-96,-60,-8,-58,-34,-41,-5,-5,-38,9,-30,-45,-50,111,-37,10,-84,-93,40,35,-33,-80,26,19,8,-28,51,-13,85, 
  /* [6][0][][] */ 33,-1,-66,21,-37,-95,100,87,-78,44,-42,66,-127,-82,66,30,-7,-50,-30,-12,-2,-11,-40,-59,-65,54,58,26,11,13,83,-65,7,-1,14,-58,25,6,45,55,5,21,-46,-37,-10,-71,-68,25,28,-125,-20,72,31,16,-25,-64,73,29,9,-18,-111,55,-101,1,18,31,-1,57,21,5,6,-38,-17,20,77,23,59,-37,45,-53,-1,-49,-59,72,13,-73,26,18,-29,62,36,37,-20,-14,-32,97, 
  /* [7][0][][] */ 40,114,-42,-75,-29,-15,45,13,-64,27,-68,-64,-48,11,10,-31,-51,-37,-48,43,8,121,28,30,-13,4,20,27,32,40,90,-52,65,17,-25,23,-1,7,30,41,-67,6,16,-60,5,-64,68,-31,62,-102,-97,-38,-35,3,-10,-12,39,17,-103,1,3,127,19,-38,-32,-7,-28,49,-45,-36,-100,47,37,101,-50,42,-35,38,20,-60,-7,-49,94,-76,63,-26,-30,17,13,80,-74,28,65,-57,-35,8, 
  /* [8][0][][] */ -7,71,-57,61,-34,-29,-93,23,-91,-22,17,10,-32,46,31,102,1,-60,7,26,34,1,-19,-4,-22,78,8,27,-6,-7,-53,-12,-22,-46,-27,-76,-39,36,41,-4,12,-47,34,11,-36,-23,8,-19,-30,-4,57,71,-2,-34,-81,102,-35,29,0,-28,-37,-6,12,63,-30,-71,-57,-20,-36,31,18,17,-25,-62,-127,-25,-55,34,-76,-40,-31,8,-67,-27,-15,-11,36,35,5,68,-66,-12,-84,-112,10,-54, 
  /* [9][0][][] */ -19,22,-92,43,-15,-43,66,57,26,59,7,100,-15,-7,14,127,20,19,79,19,27,7,22,-92,-27,10,29,0,4,3,51,60,-27,-11,-10,-115,11,-20,-27,-14,-9,19,37,-12,-21,13,11,17,44,108,12,-12,-47,-100,-5,2,1,-10,79,-8,-44,54,-33,-32,83,-20,-33,25,-63,25,32,29,-19,96,-21,-29,-34,29,-40,-21,49,-16,55,-12,29,-13,-8,-42,-62,22,-2,-6,75,43,-41,-11, 
  /* [10][0][][] */ 72,23,-46,-22,-32,-21,64,4,17,-26,-35,-10,-79,-31,-3,-16,-69,-28,2,6,54,18,34,-4,-38,87,34,0,-58,-77,-14,-17,49,-28,36,24,60,-50,86,127,12,-38,3,8,-44,-95,-11,43,53,59,-67,-42,-5,12,-4,41,36,-45,63,61,0,50,-60,-28,-9,-59,23,81,22,-35,-11,61,117,47,6,-74,40,-62,55,8,-23,28,58,18,-30,2,10,52,-24,-12,38,37,42,38,-24,4, 
  /* [11][0][][] */ -38,-16,15,-85,15,-30,-34,-58,80,-21,38,-15,12,2,-11,8,-60,-9,65,11,-35,11,-82,-87,37,24,-24,46,29,-45,50,-29,31,12,18,10,-95,42,-115,55,-71,74,-57,70,-5,7,-9,-58,53,-28,-74,-66,28,15,69,-68,-21,-37,19,-16,-1,-64,-2,-127,3,-97,77,107,126,34,53,4,-51,0,56,-30,103,47,34,36,32,2,-17,70,70,40,11,2,-75,-51,1,2,55,46,60,77, 
  /* [12][0][][] */ 40,-17,-17,-43,18,81,-20,22,54,64,30,44,23,52,5,1,-50,33,14,45,127,-14,46,-62,29,18,-50,-49,-27,83,15,18,33,-2,15,-29,25,12,-27,-13,18,-17,36,66,-27,39,-4,-8,-37,40,-7,15,-5,-41,3,17,-39,61,12,62,49,-79,37,-89,-7,57,-12,-17,10,-34,43,27,-7,19,-10,39,-3,38,-66,-12,-14,38,113,13,5,91,-15,-41,51,12,-60,30,61,5,-19,-77, 
  /* [13][0][][] */ -2,57,-11,-58,-31,-3,8,-27,0,-46,-71,-73,50,-117,-45,-91,-23,-31,-94,-38,-77,-40,44,96,-40,16,100,12,-3,-47,66,17,-9,-12,-120,127,-29,-32,52,-65,109,10,-5,26,-20,-114,62,-37,94,-35,-41,19,50,-5,-15,70,84,-45,-41,-3,51,61,-11,-83,-14,25,-9,60,-69,-52,-66,25,-37,37,-55,-89,-76,-20,44,98,13,57,74,-79,65,42,13,12,6,-14,1,2,-51,-24,-5,-1, 
  /* [14][0][][] */ -3,33,-90,-39,89,83,-86,-9,60,-28,97,-1,22,-24,-51,-60,-66,25,44,127,14,-39,-11,15,19,29,-9,73,10,9,-16,12,68,1,-49,7,-37,54,61,38,62,7,19,22,-18,-52,44,-55,49,-15,-9,-29,72,1,-48,25,15,75,-82,-1,3,-60,-21,-103,9,-64,-37,11,-68,60,-31,43,-12,-17,-19,-28,53,-25,-44,-41,34,13,11,-21,-13,52,2,-2,-38,65,65,-5,-4,-39,-32,-59, 
  /* [15][0][][] */ -69,-32,52,-61,9,-15,-23,-75,-26,-4,-50,61,-18,-28,46,71,-99,-23,-13,-82,21,-14,21,-80,37,2,31,-64,-70,-125,-68,3,-46,30,63,-76,9,-37,39,-51,-23,0,40,-25,-8,-21,71,94,-50,-37,22,-50,-48,64,7,-60,-85,-32,83,0,-36,30,-107,25,-64,22,11,23,31,-99,88,-31,85,-44,-37,-48,5,-6,47,33,-5,61,73,41,5,-29,-127,12,8,-54,-70,46,42,-49,-23,52, 
};
const TfArray<4, int> tensor_dimension9 = { 4, { 16,1,1,96 } };
const TfArray<16, float> quant9_scale = { 16, { 0.0019110338762402534, 0.0035295262932777405, 0.0018341800896450877, 0.0030287778936326504, 0.0032827798277139664, 0.0038978047668933868, 0.00278686941601336, 0.0025433122646063566, 0.0044124643318355083, 0.0032402174547314644, 0.0031558789778500795, 0.0030609339009970427, 0.0037721022963523865, 0.0034186150878667831, 0.0043137599714100361, 0.0044519430957734585, } };
const TfArray<16, int> quant9_zero = { 16, { 0,0,0,0,0,0,0,0,0,0,0,0,0,0,0,0 } };
const TfLiteAffineQuantization quant9 = { (TfLiteFloatArray*)&quant9_scale, (TfLiteIntArray*)&quant9_zero, 0 };
const ALIGN(16) int32_t tensor_data10[96] = { 2140, 315, -4392, -5820, -2318, 2683, -383, 641, -2105, -1977, 11799, -4112, -578, 10436, 9528, -4744, 15158, 3928, -4193, -1137, 1204, 689, 945, -1710, 361, -2976, -857, -3793, 484, -7743, 918, 635, 7456, -2904, 1276, -4, 1136, -1604, -181, 8240, 342, -770, 673, -3341, 11433, 22149, -28, 16292, -3897, 13466, 6624, -4504, -720, -216, 973, 8726, -1431, 10, 14541, 4416, 9368, 9826, 10978, -8444, -851, -1729, -1840, 3511, -2860, -3596, 1974, 338, 14680, 371, -1196, 10127, -645, -336, 8691, -2866, 981, 12487, -442, 956, 14517, -1720, -4562, -3624, -2301, -5722, 11240, 482, 3552, -1235, -2212, -3263, };
const TfArray<1, int> tensor_dimension10 = { 1, { 96 } };
const TfArray<96, float> quant10_scale = { 96, { 0.00020042974210809916, 0.00022708969481755048, 0.00011614073446253315, 0.00010944152745651081, 0.00024270222638733685, 0.0002046391018666327, 0.00028461680631153286, 0.00023580803826916963, 0.00016888682148419321, 0.00018682052905205637, 0.00013959922944195569, 0.00018898457346949726, 0.00025214935885742307, 0.00013953467714600265, 0.00013798882719129324, 0.00017026595014613122, 0.00010513351298868656, 0.00024370748724322766, 0.00022989722492638975, 0.00012072880781488493, 0.00021572211699094623, 0.00033602045732550323, 0.00015171222912613302, 0.00024116996792145073, 0.00065609364537522197, 0.00019495721790008247, 0.00022465725487563759, 0.000158051130711101, 0.00016860506730154157, 9.8830561910290271e-05, 0.00027909845812246203, 0.0002425818529445678, 0.00021710606233682483, 0.00015224998060148209, 0.0002479423419572413, 0.00038365143700502813, 0.00020315431174822152, 0.0003423154994379729, 0.00031948246760293841, 0.00016019017493817955, 0.00018309056758880615, 0.00022824470943305641, 0.00022527766122948378, 0.00018900874420069158, 0.00012996169971302152, 7.8874058090150356e-05, 0.00021105320774950087, 7.5179777923040092e-05, 0.00022450626420322806, 0.00011078112584073097, 0.00011064204591093585, 0.00011808052659034729, 0.00021418528922367841, 0.00016835937276482582, 0.00026277953293174505, 0.00016979614156298339, 0.00019046156376134604, 0.00020740415493492037, 0.00012680274085141718, 0.00011860572703881189, 0.0001487775007262826, 0.0001995927159441635, 0.00018213248404208571, 0.00012402214633766562, 0.00017431702872272581, 0.0003860068682115525, 0.00029402010841295123, 0.0002553967060521245, 0.00016177786164917052, 0.00016839925956446677, 0.00018401551642455161, 0.00012181766214780509, 0.00011033012560801581, 0.00021789962192997336, 0.00032369777909480035, 0.00013024733925703913, 0.00016918427718337625, 0.00021705594554077834, 0.00014708389062434435, 0.00020717144070658833, 0.00021438987459987402, 9.7001029644161463e-05, 0.00022030873515177518, 0.00015653041191399097, 9.3595946964342147e-05, 0.0001971032761503011, 0.00012352154590189457, 0.00018430469208396971, 0.00039008533349260688, 0.00017119687981903553, 0.000115673836262431, 0.00034451691317372024, 0.00016628246521577239, 0.00028172900783829391, 0.00014636323612648994, 0.00029923478723503649, } };
const TfArray<96, int> quant10_zero = { 96, { 0,0,0,0,0,0,0,0,0,0,0,0,0,0,0,0,0,0,0,0,0,0,0,0,0,0,0,0,0,0,0,0,0,0,0,0,0,0,0,0,0,0,0,0,0,0,0,0,0,0,0,0,0,0,0,0,0,0,0,0,0,0,0,0,0,0,0,0,0,0,0,0,0,0,0,0,0,0,0,0,0,0,0,0,0,0,0,0,0,0,0,0,0,0,0,0 } };
const TfLiteAffineQuantization quant10 = { (TfLiteFloatArray*)&quant10_scale, (TfLiteIntArray*)&quant10_zero, 0 };
const ALIGN(16) int8_t tensor_data11[1*3*3*96] = { 
  /* [0][0][][] */ 18,100,1,86,-34,-1,47,41,89,-72,-52,51,-24,-18,14,-11,-127,7,29,80,32,64,81,98,38,-48,-45,6,-28,32,29,-24,-24,2,-53,127,-3,59,7,-46,17,-30,20,46,-63,-110,18,-91,-9,-79,-77,19,-15,56,-18,-11,-74,-72,-82,-127,-112,5,-103,15,-29,40,84,-58,-33,35,58,-6,-56,26,37,-47,2,-40,-94,55,-12,-84,76,-30,-6,-34,-24,67,-64,-16,-52,20,78,-14,74,-4, -53,-55,-12,109,-14,117,-8,8,80,48,-106,58,-33,-55,-101,110,-102,53,39,78,127,8,112,127,40,-25,16,24,30,127,-11,-127,48,122,-18,80,50,127,-18,-127,127,-3,109,107,-113,-101,127,-92,1,-127,-127,-36,-44,127,-22,-127,20,3,-127,-35,-66,-127,-20,112,-16,70,127,-35,-8,127,127,-2,-62,41,-38,-127,25,-64,-9,127,-2,-12,127,-65,-27,-43,125,83,102,111,-102,-6,126,-32,127,32, 15,-78,23,26,7,-17,-5,39,61,64,-51,100,-21,54,-28,-38,-55,12,23,67,34,48,47,72,30,-100,30,40,21,57,-7,-53,-12,-93,-44,92,-25,67,8,-4,0,42,-1,15,-103,-74,-10,-59,69,-99,62,1,40,18,8,-6,47,-84,-23,-84,-127,39,-99,8,66,35,11,-21,-23,52,33,28,-41,-23,-7,-25,10,-12,-127,23,20,-104,47,0,-41,-32,1,-8,-74,-20,9,28,4,42,12,-4, 
  /* [0][1][][] */ 72,-1,55,127,12,-69,123,38,-13,-127,-44,123,-3,-127,-82,18,-73,-44,85,28,-101,-2,-125,-49,-17,57,-127,127,-122,58,125,70,8,77,16,127,-114,72,-2,-23,80,-127,24,127,-127,-65,2,-111,-39,-49,-103,21,79,-44,60,-16,-127,-10,-56,24,-64,-99,-59,29,-99,-30,74,-64,-55,36,-55,-106,-121,34,127,-95,58,63,-61,-36,127,-127,-34,127,-64,8,-31,127,9,44,-54,19,-1,-80,51,-19, -127,6,-31,93,-64,-127,-127,-127,68,23,-2,15,-78,-93,-59,127,-116,-127,127,127,29,-127,-127,90,-127,127,9,103,-86,-39,-127,45,-127,109,127,-38,15,80,127,-97,-48,36,3,44,-13,-126,-86,-127,12,-48,-106,127,94,14,45,-54,16,37,72,18,-19,-51,-127,127,5,-127,52,127,5,87,-125,-74,-106,15,-95,-100,127,127,105,-48,-121,47,-90,93,-122,-43,127,116,127,127,-127,-127,-127,-49,61,127, 54,-1,101,39,11,-32,14,29,-36,105,-69,127,-4,-8,-127,36,38,-33,36,29,-101,5,-90,-96,-7,8,124,18,127,108,31,-112,-16,-127,-14,92,-127,1,-40,-31,-14,90,-9,92,-20,-98,-24,-82,127,-103,-16,-3,54,-61,-127,39,86,3,-83,60,-89,-57,-9,39,127,-24,-28,-13,-72,22,-40,-36,-127,-127,-7,-62,-11,-13,-88,-32,-88,-80,-15,126,-85,21,9,-20,-21,-39,-11,41,-36,127,-15,-17, 
  /* [0][2][][] */ 13,-127,59,-38,22,20,30,33,-42,-66,-71,-29,39,-57,-42,34,-34,6,13,32,-15,30,14,-13,14,92,2,-12,-26,10,-6,23,-37,-5,-43,36,39,4,-17,-37,-2,27,-11,-24,-30,-68,-6,3,-13,-6,-25,63,105,-13,-44,-1,-3,-8,-16,43,-45,23,14,-3,-24,51,-95,-38,47,9,18,99,-41,34,14,46,-38,-37,-30,-5,6,-59,-22,-44,-59,46,-39,-2,-74,96,-9,20,-27,10,-27,-20, -64,-8,127,-7,127,81,-21,-11,-127,16,-127,-51,127,-35,-45,26,-15,35,0,-15,-11,-1,57,10,65,-31,-18,44,-33,84,-18,-16,-38,49,-13,-18,52,93,7,-108,-25,1,-127,47,-15,-127,-32,-24,-11,-127,-58,107,127,-63,-37,-76,11,127,-59,25,103,-104,48,72,-31,42,-70,8,127,-8,-1,127,-57,34,-11,-47,-26,-86,-86,-5,-21,-52,-26,-71,-18,127,55,7,78,55,12,3,-39,7,-24,-12, 17,95,113,-52,8,-8,-26,17,-9,35,-61,22,29,-11,-18,38,-43,-10,15,39,-40,23,-9,-56,17,62,24,17,37,1,-47,-79,-34,-10,-36,-34,32,-13,-26,-19,-10,-20,6,5,-82,-89,-17,-10,26,29,77,11,31,-29,12,-4,10,0,1,75,-69,19,-2,0,22,47,-62,6,32,-2,9,92,2,-18,-1,4,-24,-24,-28,-8,2,-95,-32,-21,-127,22,-20,-36,-86,67,-7,22,-40,14,-63,-28, 
};
const TfArray<4, int> tensor_dimension11 = { 4, { 1,3,3,96 } };
const TfArray<96, float> quant11_scale = { 96, { 0.0085182636976242065, 0.0096513116732239723, 0.0049359812401235104, 0.0046512647531926632, 0.01031484454870224, 0.0086971614509820938, 0.012096214108169079, 0.010021841153502464, 0.0071776900440454483, 0.0079398723319172859, 0.0059329671785235405, 0.0080318441614508629, 0.010716347023844719, 0.0059302235022187233, 0.0058645252138376236, 0.0072363028302788734, 0.004468174185603857, 0.01035756804049015, 0.0097706317901611328, 0.0051309741102159023, 0.0091681899502873421, 0.014280868694186211, 0.0064477697014808655, 0.010249723680317402, 0.027883980423212051, 0.0082856817170977592, 0.009547933004796505, 0.0067171729169785976, 0.0071657150983810425, 0.0042002988047897816, 0.011861684732139111, 0.010309728793799877, 0.0092270076274871826, 0.006470623891800642, 0.010537548922002316, 0.016305185854434967, 0.0086340578272938728, 0.01454840786755085, 0.013578005135059357, 0.0068080821074545383, 0.0077813491225242615, 0.009700399823486805, 0.0095743006095290184, 0.0080328714102506638, 0.0055233719758689404, 0.0033521472942084074, 0.0089697614312171936, 0.0031951405107975006, 0.0095415161922574043, 0.0047081978991627693, 0.0047022867947816849, 0.0050184223800897598, 0.0091028744354844093, 0.0071552731096744537, 0.011168129742145538, 0.0072163357399404049, 0.0080946162343025208, 0.0088146766647696495, 0.0053891162388026714, 0.005040743388235569, 0.0063230437226593494, 0.0084826899692416191, 0.0077406303025782108, 0.0052709411829710007, 0.0074084736406803131, 0.016405291855335236, 0.012495853938162327, 0.010854359716176987, 0.0068755592219531536, 0.0071569681167602539, 0.0078206593170762062, 0.0051772505976259708, 0.0046890303492546082, 0.0092607336118817329, 0.013757155276834965, 0.0055355117656290531, 0.0071903318166732788, 0.009224877692759037, 0.0062510650604963303, 0.0088047860190272331, 0.0091115692630410194, 0.0041225436143577099, 0.0093631213530898094, 0.0066525423899292946, 0.0039778277277946472, 0.0083768889307975769, 0.0052496655844151974, 0.0078329490497708321, 0.01657862588763237, 0.0072758672758936882, 0.0049161380156874657, 0.014641968533396721, 0.0070670046843588352, 0.011973482556641102, 0.0062204375863075256, 0.012717477977275848, } };
const TfArray<96, int> quant11_zero = { 96, { 0,0,0,0,0,0,0,0,0,0,0,0,0,0,0,0,0,0,0,0,0,0,0,0,0,0,0,0,0,0,0,0,0,0,0,0,0,0,0,0,0,0,0,0,0,0,0,0,0,0,0,0,0,0,0,0,0,0,0,0,0,0,0,0,0,0,0,0,0,0,0,0,0,0,0,0,0,0,0,0,0,0,0,0,0,0,0,0,0,0,0,0,0,0,0,0 } };
const TfLiteAffineQuantization quant11 = { (TfLiteFloatArray*)&quant11_scale, (TfLiteIntArray*)&quant11_zero, 3 };
const ALIGN(16) int32_t tensor_data12[96] = { 7729, 3303, 995, -715, 4219, 12304, 9396, 1600, -196, 10398, 1586, -3947, 2924, 2604, 518, -451, 3121, 8971, -1269, -210, 5858, 11184, 9015, -2937, -3847, -1436, 19021, -147, 2132, 1264, 10019, -1900, 9822, 2794, 4660, -4667, 984, -4839, 188, 3234, 3046, 1176, 1505, -1287, 1465, 1461, 2858, 4299, 2496, 2617, 5952, 4224, -4193, 2057, 1339, 2249, 1646, 1814, 8512, 2119, -1179, 5307, 3842, 5113, 4225, 6927, -3459, 3611, 6331, -407, 4963, 1677, 2122, 3950, 4398, 2252, -48, 1918, 3703, 3103, 3232, 3561, 6446, 721, 3268, 3328, 278, -1073, 12008, -491, 497, -1092, 15291, 3295, 182, -481, };
const TfArray<1, int> tensor_dimension12 = { 1, { 96 } };
const TfArray<96, float> quant12_scale = { 96, { 0.00010327991185477003, 0.00011194457329111174, 0.00022308020561467856, 0.00019262543355580419, 0.00015965744387358427, 6.8988905695732683e-05, 9.3083537649363279e-05, 0.00014508672757074237, 0.00015293188334908336, 7.3554343543946743e-05, 0.00014047391596250236, 0.00010460220073582605, 0.00016965271788649261, 0.00018929605721496046, 0.00013847186346538365, 0.00015011860523372889, 0.00017578998813405633, 8.4200903074815869e-05, 0.00011127619654871523, 0.00014573709631804377, 0.00011460606037871912, 7.443346839863807e-05, 9.1710178821813315e-05, 0.00010889577970374376, 0.00015065025945659727, 0.00013126466365065426, 4.7610767069272697e-05, 0.00015245686518028378, 0.00014521622506435961, 0.00016246380982920527, 8.6786370957270265e-05, 0.00015630114648956805, 7.5900017691310495e-05, 0.0001609997998457402, 0.00014496076619252563, 0.00013261221465654671, 0.00016080711793620139, 0.00012520598829723895, 0.00016174517804756761, 0.00013432916603051126, 0.00015897309640422463, 0.00020329805556684732, 0.00023600818531122059, 0.00020799912454094738, 0.00018048750644084066, 0.00020462711108848453, 0.00018132536206394434, 0.00013183381815906614, 0.00019870957476086915, 0.00016819077427498996, 0.00011272341362200677, 0.00010310213110642508, 0.00012458929268177599, 0.0001731095981085673, 0.00016941606008913368, 0.00016206642612814903, 0.00019125262042507529, 0.00014260430180002004, 9.5532268460374326e-05, 0.00010830743849510327, 0.00017067840963136405, 0.00011526860907906666, 0.00016219663666561246, 0.00012617585889529437, 0.0001342522882623598, 9.7838608780875802e-05, 0.00017722249322105199, 0.00012797622184734792, 0.00010372659016866237, 0.00022045864898245782, 0.00014174924581311643, 0.00013692118227481842, 0.00018393600475974381, 0.00012140307080699131, 0.0001143524277722463, 0.00013116325135342777, 0.00019026335212402046, 0.00020498894446063787, 0.00010994014155585319, 0.00017091911286115646, 0.00015151144179981202, 0.0001183114291052334, 0.00010935649333987385, 0.00012112994591007009, 0.00010626327275531366, 0.00017643882893025875, 0.00018224243831355125, 0.00024973417748697102, 7.3536204581614584e-05, 0.00016139287617988884, 0.00023277242144104093, 0.00017151035717688501, 6.1686150729656219e-05, 0.00012752909970004112, 0.00017755500448402017, 0.00012400257401168346, } };
const TfArray<96, int> quant12_zero = { 96, { 0,0,0,0,0,0,0,0,0,0,0,0,0,0,0,0,0,0,0,0,0,0,0,0,0,0,0,0,0,0,0,0,0,0,0,0,0,0,0,0,0,0,0,0,0,0,0,0,0,0,0,0,0,0,0,0,0,0,0,0,0,0,0,0,0,0,0,0,0,0,0,0,0,0,0,0,0,0,0,0,0,0,0,0,0,0,0,0,0,0,0,0,0,0,0,0 } };
const TfLiteAffineQuantization quant12 = { (TfLiteFloatArray*)&quant12_scale, (TfLiteIntArray*)&quant12_zero, 0 };
const ALIGN(16) int8_t tensor_data13[96*1*1*16] = { 
  /* [0][0][][] */ -41,46,-2,-8,-6,-40,-60,-14,50,-43,33,-38,76,-73,17,-127, 
  /* [1][0][][] */ -127,42,-83,-67,-44,20,10,65,-9,-28,97,-28,35,123,15,14, 
  /* [2][0][][] */ -29,16,-47,15,-7,-20,6,-32,-72,127,30,6,26,19,-28,58, 
  /* [3][0][][] */ -51,-61,-10,-40,-103,33,-60,-124,-22,34,34,-87,-50,-56,-127,-51, 
  /* [4][0][][] */ 50,4,-17,13,-48,-1,-127,26,11,68,9,58,-8,18,-50,-76, 
  /* [5][0][][] */ -117,103,-87,-32,89,-68,-14,-125,102,-61,22,-44,34,-104,-127,-101, 
  /* [6][0][][] */ -43,-54,-11,26,-82,48,29,-3,-21,-41,120,-40,-10,-20,-127,8, 
  /* [7][0][][] */ -16,113,119,-71,78,108,-11,-19,46,97,-127,-34,91,3,-3,79, 
  /* [8][0][][] */ -32,5,54,-17,29,39,127,96,-48,-28,-94,-88,11,41,-79,-79, 
  /* [9][0][][] */ 14,35,123,28,-117,-30,-127,-99,80,24,123,11,-44,-114,75,-45, 
  /* [10][0][][] */ -46,-125,-20,-109,-127,71,23,33,-37,-37,15,64,-47,44,-79,-6, 
  /* [11][0][][] */ 86,-55,23,109,-109,-13,85,7,111,127,-84,40,34,-77,-37,125, 
  /* [12][0][][] */ -50,-29,127,-14,62,-7,5,41,68,-18,48,61,-75,22,-87,25, 
  /* [13][0][][] */ -12,-19,34,21,28,29,127,38,-95,2,-2,5,-8,82,56,-43, 
  /* [14][0][][] */ 123,-108,117,-9,75,127,115,101,120,97,77,34,72,-28,-6,-67, 
  /* [15][0][][] */ -16,127,24,-52,34,99,-54,50,-70,-17,-36,-7,-45,107,-16,-48, 
  /* [16][0][][] */ -59,46,115,-61,19,56,16,-3,14,34,-16,55,94,-3,101,127, 
  /* [17][0][][] */ -7,115,76,-99,35,-19,27,-81,-87,47,-33,55,-105,-13,127,-27, 
  /* [18][0][][] */ -93,21,-39,-68,86,109,-61,-66,30,101,127,59,-24,73,-63,-1, 
  /* [19][0][][] */ 31,96,94,90,72,-33,-46,22,-50,105,76,127,85,78,-61,41, 
  /* [20][0][][] */ 67,-18,20,99,-50,10,-56,76,-47,-20,-127,-19,66,-62,30,-27, 
  /* [21][0][][] */ -96,-100,-22,108,-47,17,-127,101,-5,16,21,-6,-50,44,-69,12, 
  /* [22][0][][] */ 9,17,-64,-33,127,-15,-10,40,36,59,44,70,12,45,2,30, 
  /* [23][0][][] */ -82,21,-26,9,-14,40,127,100,13,126,-15,-45,-11,34,-52,-7, 
  /* [24][0][][] */ 23,-63,57,-3,127,34,65,-41,71,45,30,31,-71,11,-24,-22, 
  /* [25][0][][] */ 127,-40,88,32,15,-12,-57,93,83,-22,-47,20,111,-67,119,44, 
  /* [26][0][][] */ 107,55,121,92,83,3,-65,-49,-33,30,-10,127,13,-89,27,-62, 
  /* [27][0][][] */ -27,23,-62,4,-27,90,19,-90,20,-91,93,20,25,-19,78,127, 
  /* [28][0][][] */ -65,5,-56,-79,41,-80,-19,7,-50,127,-53,33,-9,39,-36,50, 
  /* [29][0][][] */ 51,88,-72,34,32,98,-35,-17,28,67,16,72,-127,20,-34,40, 
  /* [30][0][][] */ -22,87,-98,-77,51,-42,16,-3,-67,71,-79,4,4,51,-13,127, 
  /* [31][0][][] */ 37,-127,93,13,92,-111,-95,10,-7,0,25,-14,-94,66,39,117, 
  /* [32][0][][] */ -44,72,-32,78,-90,67,20,60,38,-127,36,-75,72,36,57,34, 
  /* [33][0][][] */ -96,-8,42,100,-6,25,-69,13,-35,-88,55,-29,-7,-7,24,127, 
  /* [34][0][][] */ -17,13,-104,-100,66,-32,-18,101,8,4,-1,-23,-47,-20,-4,127, 
  /* [35][0][][] */ 77,-17,28,-20,12,29,-90,-18,-35,-127,-42,36,-8,-18,33,-20, 
  /* [36][0][][] */ 3,10,-103,-29,25,127,-1,38,-16,14,53,9,-6,16,-70,31, 
  /* [37][0][][] */ 39,9,53,-49,31,-127,32,-12,-118,56,-86,-18,3,29,92,34, 
  /* [38][0][][] */ -43,112,48,-41,45,34,55,-83,-2,7,-127,41,-41,-80,-81,16, 
  /* [39][0][][] */ 81,34,-125,-103,0,-28,25,-81,-11,2,-12,-24,43,14,-127,-88, 
  /* [40][0][][] */ -38,10,-76,-96,-25,-39,30,-127,-16,-16,24,-1,31,83,28,92, 
  /* [41][0][][] */ -32,-88,-2,127,-12,-21,-82,-39,-9,-53,47,-67,-86,-33,14,10, 
  /* [42][0][][] */ 21,94,-33,-127,13,20,2,-18,60,-14,-38,7,58,-24,-21,14, 
  /* [43][0][][] */ 14,50,-8,30,127,28,17,23,8,17,27,-93,-73,-13,-21,-11, 
  /* [44][0][][] */ 93,4,46,35,-30,-12,-30,39,53,-36,51,3,127,16,-57,-42, 
  /* [45][0][][] */ 9,-65,-54,38,-38,-74,12,59,69,-9,24,14,-59,127,3,-22, 
  /* [46][0][][] */ 16,-54,46,45,-2,-26,-69,41,26,-47,39,-20,38,87,46,127, 
  /* [47][0][][] */ -52,-40,36,81,-9,10,54,14,34,-57,-127,-44,42,-28,-92,54, 
  /* [48][0][][] */ -90,50,10,-21,9,58,-4,-127,32,-45,17,-71,36,-84,-61,6, 
  /* [49][0][][] */ -69,0,26,-40,3,-3,103,127,-26,-12,1,27,-59,26,-46,23, 
  /* [50][0][][] */ 68,15,-83,27,24,-127,-49,8,-56,49,-34,11,-1,-90,-79,-37, 
  /* [51][0][][] */ -79,62,-66,127,-64,79,-71,-70,-112,-84,-21,-88,14,42,9,110, 
  /* [52][0][][] */ -127,-7,10,-17,23,60,69,27,33,-96,-12,-41,-95,-62,-118,-12, 
  /* [53][0][][] */ -75,-102,-37,-127,-32,3,10,81,46,-57,-60,29,-18,10,64,83, 
  /* [54][0][][] */ -31,-49,34,-2,-64,74,68,-25,-15,-99,71,33,-10,-3,-127,33, 
  /* [55][0][][] */ -4,-20,-60,42,80,-36,63,87,-100,-75,-127,-41,93,-45,0,31, 
  /* [56][0][][] */ 23,-63,-93,-28,-127,20,-113,41,-9,-1,19,23,121,-6,61,34, 
  /* [57][0][][] */ -70,16,52,-23,127,61,66,55,-34,51,-10,-21,-89,41,-122,11, 
  /* [58][0][][] */ 30,-7,8,-35,43,-18,-75,-84,60,-127,-79,22,-82,-64,-27,43, 
  /* [59][0][][] */ -116,-58,-14,45,-15,127,-102,-50,72,112,-118,-39,-48,8,-56,32, 
  /* [60][0][][] */ 7,-72,15,40,-127,-49,6,24,9,86,-19,62,1,-51,36,33, 
  /* [61][0][][] */ 37,27,-102,-6,-70,-23,-127,-112,-20,0,39,109,65,-35,102,80, 
  /* [62][0][][] */ 30,-26,56,-28,-11,5,14,83,-43,127,5,69,25,22,73,85, 
  /* [63][0][][] */ 8,-123,-17,-10,-74,24,61,-26,-33,-36,-2,-39,-16,127,108,34, 
  /* [64][0][][] */ -3,31,-127,-32,18,81,37,-11,-30,-81,17,-17,81,-41,-95,90, 
  /* [65][0][][] */ -16,-18,23,18,33,-2,97,68,-22,17,-127,-117,8,54,-77,25, 
  /* [66][0][][] */ -47,-127,-17,-70,-34,-78,30,1,-19,-37,16,60,-44,-40,-35,32, 
  /* [67][0][][] */ -51,-75,-52,-12,-64,105,-1,-127,-43,-1,-69,-95,4,-41,-83,27, 
  /* [68][0][][] */ 108,28,44,29,-77,27,-52,-41,-83,-127,-35,-30,73,-41,55,-40, 
  /* [69][0][][] */ 20,-23,52,-8,-20,-7,-53,62,-28,127,-34,-2,35,66,69,-8, 
  /* [70][0][][] */ 41,-4,-28,36,-127,48,10,-100,80,104,21,61,49,-23,-33,10, 
  /* [71][0][][] */ 97,-45,118,107,-107,-35,54,-44,127,8,-40,-5,16,-33,33,48, 
  /* [72][0][][] */ -8,-43,48,60,50,-13,-127,79,56,10,23,7,-53,-50,-59,79, 
  /* [73][0][][] */ 118,40,60,-127,49,-19,-38,61,-76,89,-79,-26,3,-68,31,-35, 
  /* [74][0][][] */ 105,-2,64,71,-127,-41,20,-11,-84,-63,3,-68,27,-110,6,3, 
  /* [75][0][][] */ 115,127,-46,50,71,19,-56,-68,-1,-11,18,99,-109,27,63,81, 
  /* [76][0][][] */ -61,-33,7,-44,-70,-16,91,-7,-53,17,105,36,-30,-127,-16,78, 
  /* [77][0][][] */ -30,127,-28,16,-52,-63,16,38,15,-38,7,69,-32,27,10,76, 
  /* [78][0][][] */ 125,63,-49,53,-103,41,-127,-41,-7,-12,-79,-6,39,-125,36,93, 
  /* [79][0][][] */ -36,-42,93,57,-43,-82,-15,-15,-21,-14,60,12,-41,127,-48,97, 
  /* [80][0][][] */ 82,107,11,-123,-21,41,102,-36,22,28,-28,20,127,-76,3,-12, 
  /* [81][0][][] */ 26,-66,32,-123,104,58,-21,127,87,41,-28,-32,-3,13,-68,-99, 
  /* [82][0][][] */ 104,35,10,2,127,-79,46,53,-14,56,-12,36,-30,-19,25,-83, 
  /* [83][0][][] */ -21,127,42,30,103,80,123,106,-26,30,-63,-94,-94,108,-48,-100, 
  /* [84][0][][] */ 10,-84,11,101,-1,-121,-114,29,-125,105,-98,-1,-127,97,-11,-95, 
  /* [85][0][][] */ -74,85,7,1,17,-18,-51,-46,-22,10,-1,-71,-127,-44,-80,61, 
  /* [86][0][][] */ -39,78,86,127,39,-31,37,38,-17,8,-31,-65,26,96,-105,-90, 
  /* [87][0][][] */ -19,54,127,-35,-80,-18,25,20,32,-15,13,43,-45,33,-8,3, 
  /* [88][0][][] */ -47,-63,-93,-7,25,41,16,26,-12,-33,-127,-99,97,-26,-6,37, 
  /* [89][0][][] */ 32,3,19,-125,8,-63,-70,68,127,-6,19,-100,0,-20,51,-83, 
  /* [90][0][][] */ -2,72,19,2,-43,24,44,112,4,-61,16,127,40,18,-11,72, 
  /* [91][0][][] */ -40,-18,-24,62,73,59,-17,-80,-52,33,-20,-3,-101,-127,-69,-9, 
  /* [92][0][][] */ -39,104,-14,-24,-127,-22,-96,72,-97,74,106,114,-10,-7,95,13, 
  /* [93][0][][] */ 116,35,102,73,-127,-64,28,42,-30,-86,-18,-57,36,-44,8,-10, 
  /* [94][0][][] */ -18,-127,7,-94,8,57,-28,6,81,-18,5,66,4,43,-52,38, 
  /* [95][0][][] */ -34,-40,-28,-61,117,127,-30,29,72,43,-78,50,-47,124,-68,36, 
};
const TfArray<4, int> tensor_dimension13 = { 4, { 96,1,1,16 } };
const TfArray<96, float> quant13_scale = { 96, { 0.0015782446134835482, 0.0017106513259932399, 0.0034089409746229649, 0.0029435544274747372, 0.002439762931317091, 0.0010542356176301837, 0.0014224314363673329, 0.0022171044256538153, 0.0023369879927486181, 0.0011240012245252728, 0.0021466149482876062, 0.0015984508208930492, 0.0025925030931830406, 0.0028926774393767118, 0.0021160210017114878, 0.0022939976770430803, 0.0026862879749387503, 0.0012866937322542071, 0.0017004376277327538, 0.0022270428016781807, 0.001751322066411376, 0.0011374353198334575, 0.0014014447806403041, 0.0016640619141981006, 0.0023021220695227385, 0.0020058860536664724, 0.0007275512907654047, 0.0023297290317714214, 0.0022190832532942295, 0.0024826475419104099, 0.0013262028805911541, 0.0023884745314717293, 0.0011598459677770734, 0.0024602757766842842, 0.0022151793818920851, 0.0020264782942831516, 0.0024573314003646374, 0.0019133019959554076, 0.0024716660846024752, 0.0020527155138552189, 0.0024293051101267338, 0.0031066453084349632, 0.0036064963787794113, 0.0031784833408892155, 0.0027580719906836748, 0.0031269548926502466, 0.0027708753477782011, 0.0020145834423601627, 0.0030365276616066694, 0.0025701627600938082, 0.0017225529300048947, 0.001575527829118073, 0.0019038782920688391, 0.0026453284081071615, 0.0025888865347951651, 0.0024765750858932734, 0.0029225761536508799, 0.0021791697945445776, 0.0014598510460928082, 0.00165507139172405, 0.0026081767864525318, 0.0017614467069506645, 0.0024785648565739393, 0.0019281229469925165, 0.0020515406504273415, 0.0014950947370380163, 0.0027081784792244434, 0.0019556346815079451, 0.0015850703930482268, 0.0033688803669065237, 0.0021661035716533661, 0.0020923246629536152, 0.0028107692487537861, 0.0018551888642832637, 0.0017474462511017919, 0.0020043363329023123, 0.0029074589256197214, 0.0031324841547757387, 0.0016800210578367114, 0.0026118550449609756, 0.0023152818903326988, 0.0018079447327181697, 0.0016711022472009063, 0.0018510151421651244, 0.0016238340176641941, 0.0026962030678987503, 0.0027848894242197275, 0.0038162467535585165, 0.0011237240396440029, 0.0024662823416292667, 0.0035570499021559954, 0.0026208900380879641, 0.00094264053041115403, 0.0019488021498546004, 0.0027132597751915455, 0.0018949124496430159, } };
const TfArray<96, int> quant13_zero = { 96, { 0,0,0,0,0,0,0,0,0,0,0,0,0,0,0,0,0,0,0,0,0,0,0,0,0,0,0,0,0,0,0,0,0,0,0,0,0,0,0,0,0,0,0,0,0,0,0,0,0,0,0,0,0,0,0,0,0,0,0,0,0,0,0,0,0,0,0,0,0,0,0,0,0,0,0,0,0,0,0,0,0,0,0,0,0,0,0,0,0,0,0,0,0,0,0,0 } };
const TfLiteAffineQuantization quant13 = { (TfLiteFloatArray*)&quant13_scale, (TfLiteIntArray*)&quant13_zero, 0 };
const ALIGN(16) int32_t tensor_data14[16] = { -25796, -5071, 718, -12213, 7440, -4350, 22372, -11631, 9536, -4751, 10170, 6955, -9158, -28357, -5956, 6718, };
const TfArray<1, int> tensor_dimension14 = { 1, { 16 } };
const TfArray<16, float> quant14_scale = { 16, { 9.0588968305382878e-05, 6.9889305450487882e-05, 6.7450331698637456e-05, 6.9002191594336182e-05, 8.9016240963246673e-05, 0.00013791777018923312, 6.5465079387649894e-05, 6.6002714447677135e-05, 0.00010952147567877546, 9.8708303994499147e-05, 9.2974907602183521e-05, 7.289210770977661e-05, 8.1293947005178779e-05, 0.0001097266431315802, 6.1832019127905369e-05, 8.6041218310128897e-05, } };
const TfArray<16, int> quant14_zero = { 16, { 0,0,0,0,0,0,0,0,0,0,0,0,0,0,0,0 } };
const TfLiteAffineQuantization quant14 = { (TfLiteFloatArray*)&quant14_scale, (TfLiteIntArray*)&quant14_zero, 0 };
const ALIGN(16) int8_t tensor_data15[16*1*1*96] = { 
  /* [0][0][][] */ 11,32,4,22,-43,-86,-11,8,-18,-58,22,-4,60,-73,54,41,-77,-38,40,28,85,27,-64,27,-7,73,127,97,-4,85,74,-22,-3,-1,6,7,47,28,6,1,119,6,20,-48,-16,17,10,-43,23,-39,87,-28,-74,10,49,10,3,-45,-5,40,-9,56,-59,-19,11,24,49,33,-7,-52,-5,37,27,27,0,18,58,1,32,26,-6,29,12,38,-51,16,0,66,18,14,-97,-28,18,4,119,85, 
  /* [1][0][][] */ 18,33,-50,-8,-21,-50,83,-49,-50,-18,-28,-30,-10,-37,8,-29,-20,-14,-31,5,-20,-85,102,-8,-15,5,1,63,-56,16,-29,30,-29,44,20,31,-19,52,-53,84,40,7,-15,-47,44,-31,-2,30,-83,-18,51,-113,-40,49,56,48,34,26,-56,26,-34,26,1,-9,36,45,65,5,-38,-127,2,22,31,49,-21,32,-39,-6,73,-21,48,-21,41,-46,-17,-43,-1,9,-20,-37,25,-1,42,-68,-30,66, 
  /* [2][0][][] */ 3,-15,3,-21,89,43,-48,40,-44,30,26,-38,40,-5,13,28,35,-20,-127,-5,-18,-38,-23,30,-2,-7,-31,10,-39,-15,-5,62,-18,-32,9,21,-47,28,-19,-25,62,5,20,48,7,69,-3,-14,-75,11,-20,9,-32,30,13,-52,30,22,46,15,-29,-16,-22,40,33,0,-41,-6,9,7,-28,-18,10,54,34,63,-45,-14,-25,-43,22,33,52,-7,-1,-45,-12,-40,-25,-30,4,59,-3,-20,85,-14, 
  /* [3][0][][] */ 14,-27,-31,-100,-6,-29,108,-10,39,127,-83,-18,17,-28,-36,63,72,21,-29,41,-31,17,28,25,-39,74,30,3,-49,-8,-52,76,1,-10,45,-1,19,-43,-9,56,25,11,-33,0,63,-34,14,40,27,-33,28,-34,95,41,33,-15,-2,-14,-12,-33,-16,52,53,-7,-19,-3,83,-26,-37,-38,-50,45,30,-67,-6,-69,12,-40,104,-5,-3,-54,-41,-32,-21,-43,79,58,-43,42,-54,-4,3,-83,-14,27, 
  /* [4][0][][] */ -19,75,34,30,-24,-5,-47,-12,27,-39,18,-20,31,38,-25,39,0,-42,-19,-41,19,-35,-60,38,-41,-30,-9,27,-51,127,-41,-14,5,-26,1,-12,64,51,-32,17,43,6,7,-45,-55,15,59,-29,9,-27,-42,-21,-76,31,54,19,10,78,-23,31,-24,-52,-16,6,68,40,-85,-5,16,-15,12,-72,-15,69,46,71,-19,45,-67,50,18,61,26,-49,41,-55,-17,-63,-38,-51,-49,10,-20,-15,36,-22, 
  /* [5][0][][] */ -3,-19,42,-31,14,-8,-8,-10,28,12,-24,-11,-20,-33,31,-18,-26,-4,-61,-67,-17,24,-25,9,15,-53,61,-33,1,44,-2,82,2,-104,27,-15,-54,-36,-57,-6,-62,-6,-31,26,-6,10,-82,23,-21,23,49,6,20,-81,5,18,-22,-84,25,-69,50,18,25,61,-55,-15,119,-36,-9,-19,11,32,-2,26,36,17,-20,-38,127,29,-36,-5,-46,12,31,52,12,86,7,-42,-6,-12,24,-26,-37,14, 
  /* [6][0][][] */ 34,-62,61,17,-19,117,-46,-98,-31,-94,-82,47,16,14,-38,63,6,36,14,-54,-89,-20,-96,-65,4,-53,1,59,-127,31,-10,-39,38,68,-31,-17,-5,-37,36,-17,-76,41,47,-16,22,31,-98,-14,64,29,-80,-103,75,12,-36,-10,25,-14,24,-22,-10,-54,32,-9,47,-82,-58,-39,-71,35,-12,-79,-50,-88,25,-85,82,5,-57,35,-45,81,39,-91,62,-46,-34,11,-79,65,-71,87,38,-48,63,-95, 
  /* [7][0][][] */ 3,2,-60,80,-52,-16,21,-5,-88,-15,80,48,13,-47,-26,-49,-6,7,3,19,-74,-32,-52,-49,70,53,7,69,-19,16,21,8,-67,-127,5,124,4,6,-12,21,1,-19,18,-66,22,65,68,80,-8,46,-46,-17,23,-44,30,-57,-26,56,-94,4,54,6,9,-46,86,-39,105,1,-49,-14,74,-21,-29,-33,-83,-20,51,-17,97,-24,-11,-22,-64,-22,43,42,-95,47,-22,17,0,50,56,-6,80,-2, 
  /* [8][0][][] */ -22,-56,7,3,16,-21,18,-2,4,-12,44,59,25,43,-74,-3,70,-9,24,13,-16,-70,-37,-22,-13,-33,76,8,-4,55,17,-19,-30,7,15,21,-64,-8,18,-27,13,46,17,-29,22,13,15,-15,34,17,49,13,-14,16,-41,12,-2,120,-58,-13,-31,-57,-65,-22,-86,-20,-21,4,-6,-7,44,-19,-17,-127,38,-105,4,14,-58,25,-39,4,11,88,72,-60,-45,57,-29,89,-1,-19,-48,-13,2,-59, 
  /* [9][0][][] */ -48,-32,-23,8,6,26,9,52,-57,21,49,60,-20,37,38,-25,-19,24,-24,-35,-2,36,-7,20,-33,20,6,31,33,2,21,-2,-3,-28,12,65,-20,4,23,-1,-19,-32,11,-4,4,43,8,32,-45,-9,-7,24,120,6,-8,-11,6,-26,17,26,-30,-4,68,6,-2,21,52,7,31,-20,-33,47,5,-127,-31,-107,-49,-17,30,-9,8,18,-15,-46,44,9,-39,-8,4,99,36,22,46,33,4,16, 
  /* [10][0][][] */ 23,39,9,20,-32,-2,-60,-19,74,-1,-24,14,25,16,-11,-59,-29,4,33,18,15,-30,-14,-54,14,-17,-92,34,-41,47,1,10,7,33,-27,20,27,-4,0,4,51,-9,52,-51,-35,5,17,15,14,15,3,-41,-26,1,1,27,-7,21,-17,-5,-16,-9,1,8,9,5,-86,-30,-48,-16,50,-36,-11,26,15,12,69,0,-92,24,-12,30,7,5,-1,15,-67,-127,-25,28,15,30,44,-42,16,44, 
  /* [11][0][][] */ 22,-44,8,30,-90,18,-4,21,90,-9,-3,-41,24,29,9,-3,-14,59,10,-37,13,22,8,-43,39,28,70,7,22,-67,-26,38,-1,127,-114,28,28,-18,80,21,-38,47,-21,6,-53,22,-17,-10,50,-24,-21,-37,-18,1,-75,81,-23,6,-17,-7,19,39,3,-72,2,-27,-127,-86,-8,-54,-97,5,71,12,-18,-22,43,86,-126,-15,-4,-21,-22,6,-18,3,64,76,32,-40,0,18,-41,26,101,58, 
  /* [12][0][][] */ 9,31,-51,-28,-14,-46,0,43,63,-22,39,-2,-4,-23,4,19,30,-46,-24,30,14,64,23,61,-31,-42,-127,-7,69,-23,32,7,-16,-72,78,16,48,-6,-7,25,3,-67,4,26,41,6,39,-1,-76,8,-50,75,68,-11,30,-84,15,32,-39,-25,3,66,83,4,-2,1,20,41,112,20,32,39,-9,-32,-26,-18,-25,-51,32,-55,34,-50,34,-33,4,16,17,-111,-3,42,-37,33,5,68,16,59, 
  /* [13][0][][] */ -4,23,-68,30,4,10,-14,18,31,52,-37,24,-32,-18,61,-63,24,54,59,15,-30,-52,-15,-4,33,49,-9,33,-6,27,59,-34,-15,52,-22,45,27,-48,-38,-41,-9,-15,25,20,54,45,-39,40,-39,48,-8,-27,-21,-34,60,29,6,-42,-15,-18,27,4,6,-37,8,92,126,49,26,14,-55,-33,32,40,-80,51,31,-62,127,-41,-20,-37,32,-2,34,59,-44,-19,-24,-17,21,67,35,17,59,62, 
  /* [14][0][][] */ -4,59,14,46,-116,-64,9,56,-64,-2,107,13,-88,-11,71,1,-25,40,-79,51,-21,10,-114,12,-59,-8,-57,-120,20,9,29,96,-63,46,10,-12,-4,-71,7,-44,49,-38,45,-39,-16,76,-72,43,-26,-52,102,7,-18,21,-44,21,-75,51,-2,59,43,77,2,48,29,-32,-4,-61,49,71,77,34,-56,36,18,-10,49,-5,33,17,-62,127,10,-125,99,-2,21,9,-119,-7,-13,25,-34,1,48,61, 
  /* [15][0][][] */ 81,-37,31,27,31,14,-12,5,4,13,-42,-23,57,78,19,-33,-17,22,-72,25,-5,-43,4,5,54,-30,95,20,40,-36,-56,45,51,39,-9,-96,49,60,68,37,67,38,4,30,-43,-127,25,-50,-21,-11,-25,-5,-3,-56,-34,58,-6,4,-9,18,-5,-73,-20,21,20,25,-65,33,-2,-5,-3,-20,-16,-110,-47,-100,-21,17,-111,32,69,-31,67,33,-56,-4,-19,-17,24,97,20,-53,-31,-19,34,-22, 
};
const TfArray<4, int> tensor_dimension15 = { 4, { 16,1,1,96 } };
const TfArray<16, float> quant15_scale = { 16, { 0.0038500311784446239, 0.0029702954925596714, 0.002866639057174325, 0.0029325929936021566, 0.0037831901572644711, 0.0058615049347281456, 0.0027822658885270357, 0.0028051151894032955, 0.0046546626836061478, 0.0041951029561460018, 0.0039514335803687572, 0.0030979143921285868, 0.0034549925476312637, 0.0046633821912109852, 0.0026278607547283173, 0.0036567517090588808, } };
const TfArray<16, int> quant15_zero = { 16, { 0,0,0,0,0,0,0,0,0,0,0,0,0,0,0,0 } };
const TfLiteAffineQuantization quant15 = { (TfLiteFloatArray*)&quant15_scale, (TfLiteIntArray*)&quant15_zero, 0 };
const ALIGN(16) int32_t tensor_data16[96] = { 11295, 327, -4824, 11966, -3785, -1515, -601, -1389, 4940, -3785, 833, -4070, 8200, -2414, -2134, -6668, 1420, -1766, -8207, -2808, -133, -614, -5493, 544, 59, 6927, -10775, -1445, -130, -3578, -681, -1135, 8748, 632, -3840, 945, -80, 10780, 2203, 1432, -234, 2298, -80, 5655, 1588, 550, 13243, 4023, -6502, -12, -3138, -2106, -1872, -4413, 942, 2863, -110, 6357, 108, 2631, -1313, -1719, -1796, 8030, 7749, -2059, 16177, 4917, -2962, -1664, 8833, -2704, -614, 2685, -1622, 1251, 20054, 5908, 10628, 6509, 11796, -781, 7145, 11833, -1098, -3653, 15729, -7851, 6742, -1982, -7169, -2135, -591, 55, 12038, -371, };
const TfArray<1, int> tensor_dimension16 = { 1, { 96 } };
const TfArray<96, float> quant16_scale = { 96, { 0.00010664462024578825, 0.00029896371415816247, 0.00018416733655612916, 0.0001170023315353319, 0.00025926670059561729, 0.00043041197932325304, 0.00012426827743183821, 0.00024029630003497005, 0.0002172050008084625, 0.00030049070483073592, 0.0002826342242769897, 0.00021222003852017224, 0.00010264026059303433, 0.00020383270748425275, 0.00025283690774813294, 0.00017087599553633481, 0.00019664793217089027, 0.00022924131189938635, 0.00014912082406226546, 0.00044277601409703493, 0.00034631832386367023, 0.00024836126249283552, 0.00013499478518497199, 0.00015970977256074548, 0.0017568108160048723, 0.00018226122483611107, 0.0002167190978070721, 0.00023256796703208238, 0.0003392377111595124, 0.00016601315292064101, 0.00016513254377059639, 0.00032853623270057142, 0.00011765785166062415, 0.00072287610964849591, 0.00022151542361825705, 0.0001822824269765988, 0.00033571975654922426, 0.00010308164200978354, 0.00028694269713014364, 0.00018432190699968487, 0.00057637121062725782, 0.00026952545158565044, 0.00024064321769401431, 0.00018313618784304708, 0.0001871386484708637, 0.00025080793420784175, 0.00011498099047457799, 0.00022111127327661961, 0.00014179208665154874, 0.00035910890437662601, 0.00027035796665586531, 0.00019194651395082474, 0.0001625394361326471, 0.00020545307779684663, 0.00023423020320478827, 0.00023109331959858537, 0.00011615603580139577, 0.0002823829127009958, 0.00032733270199969411, 0.00031017640139907598, 0.00025345323956571519, 0.000317240075673908, 0.00013870670227333903, 0.00012730841990560293, 0.0002917361562140286, 0.00042580856825225055, 9.6077936177607626e-05, 0.00016125658294185996, 0.0002372604503761977, 0.00035830296110361814, 0.00016090832650661469, 0.00022075082233641297, 0.00036772209568880498, 0.00016261123528238386, 0.00018475836259312928, 0.00021484376338776201, 7.5878793722949922e-05, 0.00014943737187422812, 0.00012625889212358743, 0.00016785133630037308, 0.00010073035809909925, 0.00029763896600343287, 0.000112548703327775, 0.00020234166004229337, 9.9170363682787865e-05, 0.00023082157713361084, 0.00011697995796566829, 0.00021885824389755726, 0.00018422788707539439, 0.00022097922919783741, 0.000130583590362221, 0.00019739952404052019, 0.00025771910441108048, 0.00015952040848787874, 0.00013655530347023159, 0.00023627604241482913, } };
const TfArray<96, int> quant16_zero = { 96, { 0,0,0,0,0,0,0,0,0,0,0,0,0,0,0,0,0,0,0,0,0,0,0,0,0,0,0,0,0,0,0,0,0,0,0,0,0,0,0,0,0,0,0,0,0,0,0,0,0,0,0,0,0,0,0,0,0,0,0,0,0,0,0,0,0,0,0,0,0,0,0,0,0,0,0,0,0,0,0,0,0,0,0,0,0,0,0,0,0,0,0,0,0,0,0,0 } };
const TfLiteAffineQuantization quant16 = { (TfLiteFloatArray*)&quant16_scale, (TfLiteIntArray*)&quant16_zero, 0 };
const ALIGN(16) int8_t tensor_data17[1*3*3*96] = { 
  /* [0][0][][] */ -78,-22,5,-83,106,-1,45,-17,-19,18,-18,-14,-19,11,-14,-9,-16,16,-21,-10,-26,41,-1,59,-5,-10,-15,-18,27,-7,33,1,15,-6,20,-51,-3,-86,-18,48,4,6,18,-8,-27,45,-100,-43,-7,17,-9,70,-49,13,17,-21,6,-33,10,-16,0,-3,10,-43,-35,-23,-33,-35,-5,47,16,30,85,-17,-19,-14,-32,2,127,2,-110,-8,-127,-8,-40,3,-26,22,-97,-8,17,-39,-1,41,-15,-14, -41,35,42,-127,-23,3,127,-46,-17,-7,-38,20,-51,-25,-72,90,-8,97,73,-3,-24,127,64,127,27,-12,60,60,127,59,127,-54,-52,-23,-64,-34,-31,-88,127,10,-31,-70,-28,-28,70,-36,-71,-9,59,3,20,127,-94,58,-108,-16,-79,-25,-1,28,-14,-127,-127,-27,-53,8,6,-53,8,38,-17,127,-104,-24,-3,-39,-85,-127,9,-127,-65,3,49,-106,112,88,-105,39,-127,12,19,-12,11,127,-30,-108, -79,-12,-15,-51,86,17,38,-24,-38,24,-18,22,5,-11,10,-35,-15,17,-6,-15,-31,19,-1,45,-2,-37,19,-72,20,12,29,0,32,-10,5,71,-1,-61,-30,99,-8,29,9,12,-22,-31,-75,-39,-11,4,-6,41,14,17,-6,-22,71,-45,17,-31,7,-3,-53,-10,-46,-20,127,-25,16,34,-1,20,38,-16,-20,9,-63,27,-33,3,-118,-6,-123,-19,7,-25,-70,5,-61,-24,25,50,-1,37,-6,-13, 
  /* [0][1][][] */ -117,-6,43,-37,33,109,-30,-25,-6,-9,-25,-11,-116,35,15,127,-23,52,95,24,18,-12,127,-24,34,16,58,22,-15,-10,10,-11,-127,-19,60,-23,9,-65,-60,-127,-5,-3,98,-56,-90,127,-127,-114,93,58,23,-32,-117,105,62,-28,16,-37,38,-30,14,0,106,-38,-31,18,-28,-86,-10,-8,-126,25,127,127,-10,-86,-127,-56,-65,-65,-74,-12,-45,-85,32,31,-123,60,-80,127,72,-70,127,18,-48,2, 65,127,127,111,-127,-127,102,-45,127,127,-69,-39,-127,127,-17,96,127,-127,127,127,127,-77,99,-125,-127,-127,127,127,-114,127,-22,127,-71,127,127,-96,127,64,0,-7,127,-3,-127,-127,127,-28,104,127,127,-127,127,-125,102,127,-127,127,-127,127,-127,127,-100,111,101,-127,127,127,-16,127,-96,-127,-4,-95,5,123,127,76,-13,-114,93,-119,66,127,127,118,127,78,-120,127,-38,61,-36,1,-92,-30,-127,-18, -127,-33,33,-87,4,80,-30,9,-46,-6,0,127,-121,19,30,81,-38,63,68,12,-2,-12,87,-15,33,18,27,-24,-8,7,7,-8,-68,-36,57,127,19,-78,-67,-23,-33,26,30,-41,-83,-63,-71,-119,83,54,-11,-10,127,28,88,-39,109,-39,59,-38,5,-23,-112,-69,-59,7,-52,-98,-11,-6,-127,13,94,-103,-7,127,-109,-33,-60,25,-113,-6,-99,-107,-20,27,-127,50,-29,-58,127,127,-47,-10,-72,-4, 
  /* [0][2][][] */ -5,-49,-23,-40,79,6,-4,39,-11,-4,32,-24,51,-8,-4,-21,-10,-4,-61,-17,-12,-12,18,-45,5,-14,-9,-25,-13,-10,-21,27,11,-4,20,-50,-14,-63,-16,-5,-21,31,27,10,2,2,-83,-15,-68,23,-27,3,10,-65,33,-21,12,-30,11,-37,17,32,-13,-46,-28,-29,101,38,31,26,-26,-7,-36,-18,-23,-36,-15,85,-34,6,-13,-16,-85,-53,-11,10,51,7,-4,10,9,-29,-6,-8,16,0, -15,-66,27,-95,-19,0,33,127,-66,54,127,-8,-28,8,127,27,-8,-37,73,-31,-39,-42,91,-11,13,12,44,23,-12,14,-114,-36,31,-31,-76,-17,-93,-127,25,-30,-25,-127,-28,88,7,-35,-95,1,25,-14,-13,-5,71,-8,-40,-56,-52,-64,53,-47,127,40,106,-28,-60,-49,-23,-18,127,49,-70,-1,11,-20,16,-22,-35,-14,0,71,-127,-20,-67,-127,80,-127,-15,16,-41,4,36,8,17,-120,-16,127, 7,1,-14,14,56,1,17,40,-28,3,15,40,65,-11,16,-38,-26,24,-12,-31,-14,7,19,-19,4,-16,3,-51,9,9,-30,17,28,-10,16,8,-17,-70,-18,32,-42,-9,7,14,-3,-6,-67,11,-45,9,-19,-4,10,-65,32,-17,56,-23,18,-27,19,19,-3,-50,-18,-20,-23,63,29,20,-33,-14,-43,-46,-12,-14,-83,60,86,47,-7,-1,-90,-10,-34,16,18,-1,37,-5,14,11,-6,-2,3,-3, 
};
const TfArray<4, int> tensor_dimension17 = { 4, { 1,3,3,96 } };
const TfArray<96, float> quant17_scale = { 96, { 0.0045323963277041912, 0.012705957517027855, 0.0078271115198731422, 0.0049725989811122417, 0.011018835008144379, 0.018292509019374847, 0.0052814017981290817, 0.010212592780590057, 0.0092312125489115715, 0.012770854867994785, 0.012011954560875893, 0.009019351564347744, 0.0043622110970318317, 0.0086628897115588188, 0.010745568200945854, 0.0072622299194335938, 0.0083575369790196419, 0.0097427554428577423, 0.0063376347534358501, 0.018817979842424393, 0.014718528836965561, 0.010555353946983814, 0.0057372781448066235, 0.0067876651883125305, 0.074664458632469177, 0.0077461018227040768, 0.0092105614021420479, 0.0098841385915875435, 0.014417602680623531, 0.007055558729916811, 0.0070181330665946007, 0.013962789438664913, 0.0050004585646092892, 0.030722234398126602, 0.0094144055619835854, 0.0077470028772950172, 0.014268089085817337, 0.0043809697963297367, 0.012195064686238766, 0.0078336810693144798, 0.024495774880051613, 0.011454830877482891, 0.010227336548268795, 0.0077832876704633236, 0.0079533923417329788, 0.010659337043762207, 0.0048866919241845608, 0.0093972291797399521, 0.0060261636972427368, 0.015262127853929996, 0.011490212753415108, 0.008157726377248764, 0.0069079259410500526, 0.0087317554280161858, 0.009954783134162426, 0.0098214661702513695, 0.004936631303280592, 0.012001273222267628, 0.013911639340221882, 0.013182496652007103, 0.010771762579679489, 0.013482702895998955, 0.0058950348757207394, 0.0054106074385344982, 0.012398786842823029, 0.018096864223480225, 0.0040833121165633202, 0.0068534044548869133, 0.010083569213747978, 0.015227875672280788, 0.0068386038765311241, 0.0093819098547101021, 0.015628188848495483, 0.0069109774194657803, 0.0078522302210330963, 0.0091308597475290298, 0.0032248485367745161, 0.006351088173687458, 0.0053660026751458645, 0.0071336817927658558, 0.0042810402810573578, 0.012649656273424625, 0.0047833197750151157, 0.0085995206609368324, 0.0042147403582930565, 0.0098099168390035629, 0.0049716481007635593, 0.0093014752492308617, 0.0078296847641468048, 0.0093916170299053192, 0.0055498024448752403, 0.0083894794806838036, 0.010953061282634735, 0.0067796171642839909, 0.0058036004193127155, 0.010041731409728527, } };
const TfArray<96, int> quant17_zero = { 96, { 0,0,0,0,0,0,0,0,0,0,0,0,0,0,0,0,0,0,0,0,0,0,0,0,0,0,0,0,0,0,0,0,0,0,0,0,0,0,0,0,0,0,0,0,0,0,0,0,0,0,0,0,0,0,0,0,0,0,0,0,0,0,0,0,0,0,0,0,0,0,0,0,0,0,0,0,0,0,0,0,0,0,0,0,0,0,0,0,0,0,0,0,0,0,0,0 } };
const TfLiteAffineQuantization quant17 = { (TfLiteFloatArray*)&quant17_scale, (TfLiteIntArray*)&quant17_zero, 3 };
const ALIGN(16) int32_t tensor_data18[96] = { 1616, 8886, 489, 1508, 8441, 14127, -327, 2120, 10403, -1541, 12944, 6040, 1808, 498, 4299, 145, 2983, 7105, -443, 11044, 1762, 8752, -1627, 1059, -13631, 1700, 3512, 2695, 7407, 2038, 3991, 4444, 2423, 22411, 3421, 3903, 4787, 3857, 3310, 3045, 23275, 1545, 2366, 2428, 3057, 6983, 10449, 13514, 1732, -646, 1188, 6141, 2788, -3620, 10663, 49, 1572, 28341, 1900, 1724, 3688, 14801, 4084, -382, 35745, 7726, 1744, 5047, 4740, 3802, 2057, 664, -4282, 4318, 2882, 4589, 554, 9566, 4372, 6556, 3290, 840, 3909, 13905, -400, 10713, 8494, 2358, -1146, 2802, 1081, 15217, 3739, 3535, 5378, 6883, };
const TfArray<1, int> tensor_dimension18 = { 1, { 96 } };
const TfArray<96, float> quant18_scale = { 96, { 0.0002414854388916865, 9.8013209935743362e-05, 0.00025144315441139042, 0.00027532034437172115, 9.0119450760539621e-05, 6.9677429564762861e-05, 0.00020847746054641902, 0.000125590551760979, 7.9807796282693744e-05, 0.00013646420848090202, 5.9758360293926671e-05, 9.1839407104998827e-05, 0.00017634368850849569, 0.00036962557351216674, 0.00012244698882568628, 0.00017071259208023548, 0.00019453595450613648, 8.7650769273750484e-05, 0.00015428326150868088, 8.0249345046468079e-05, 0.00019293547666165978, 8.3568658737931401e-05, 0.00015576703299302608, 0.00016251159831881523, 5.5820517445681617e-05, 0.00014587439363822341, 0.00016835154383443296, 0.00013881827180739492, 0.0001219627883983776, 0.0001687711919657886, 0.00012883931049145758, 0.00012589724792633206, 0.0001575419883010909, 4.3146737880306318e-05, 0.00015272067685145885, 0.00015818391693755984, 0.00011996331886621192, 0.0001254888775292784, 0.00012439992860890925, 0.00012863389565609396, 4.3236617784714326e-05, 0.00019214453641325235, 0.0001529692963231355, 0.00012623937800526619, 0.0001264100574189797, 0.00010437862511025742, 7.2946982982102782e-05, 6.7089764343108982e-05, 0.00017368995759170502, 0.00022238494420889765, 0.00032906062551774085, 0.00011000543599948287, 0.00017431341984774917, 9.8769363830797374e-05, 7.2824004746507853e-05, 0.00035434204619377851, 0.0001882399374153465, 3.4858036087825894e-05, 0.00012234043970238417, 0.0001621998380869627, 0.0001288145431317389, 6.2887054809834808e-05, 0.00015066536434460431, 0.00022011224064044654, 2.9353968784562312e-05, 0.00010147853754460812, 0.00023165436869021505, 0.00011337809701217338, 0.00015642111247871071, 0.00012284684635233134, 0.00024804953136481345, 0.00013623046106658876, 0.00013652379857376218, 0.00013846872025169432, 0.00015827131574042141, 0.00015611980052199215, 0.00018301293312106282, 8.0705845903139561e-05, 0.00014024590200278908, 0.00013472401769831777, 0.00012692541349679232, 0.00018382241250947118, 0.0001291272637899965, 6.0833364841528237e-05, 0.00010273404041072354, 7.1180576924234629e-05, 8.6717693193349987e-05, 0.00020106688316445798, 0.00017797289183363318, 0.00019904115470126271, 0.00017805385868996382, 5.8536639699013904e-05, 0.00013902297359891236, 0.00012123530905228108, 0.00010655663936631754, 9.8110489489044994e-05, } };
const TfArray<96, int> quant18_zero = { 96, { 0,0,0,0,0,0,0,0,0,0,0,0,0,0,0,0,0,0,0,0,0,0,0,0,0,0,0,0,0,0,0,0,0,0,0,0,0,0,0,0,0,0,0,0,0,0,0,0,0,0,0,0,0,0,0,0,0,0,0,0,0,0,0,0,0,0,0,0,0,0,0,0,0,0,0,0,0,0,0,0,0,0,0,0,0,0,0,0,0,0,0,0,0,0,0,0 } };
const TfLiteAffineQuantization quant18 = { (TfLiteFloatArray*)&quant18_scale, (TfLiteIntArray*)&quant18_zero, 0 };
const ALIGN(16) int8_t tensor_data19[96*1*1*16] = { 
  /* [0][0][][] */ 49,25,-2,70,-127,-34,96,43,60,105,-52,54,-3,16,23,105, 
  /* [1][0][][] */ -21,-5,-56,25,127,73,-24,-3,-6,27,-59,33,-34,81,-47,-47, 
  /* [2][0][][] */ -33,66,69,-17,67,89,3,36,32,-6,44,-10,50,-127,-24,7, 
  /* [3][0][][] */ 127,-38,-4,3,12,47,-9,11,34,16,-33,-28,-38,56,-41,64, 
  /* [4][0][][] */ -12,-6,25,50,-121,-1,-116,7,-10,45,-47,-96,-17,20,-98,127, 
  /* [5][0][][] */ -77,-14,37,31,127,28,8,18,-53,14,-39,-5,-57,34,-79,-39, 
  /* [6][0][][] */ -127,19,-41,27,-10,-69,86,6,4,-34,-54,42,6,14,-56,9, 
  /* [7][0][][] */ -56,113,59,-104,69,96,127,33,60,-6,2,65,102,52,-50,10, 
  /* [8][0][][] */ -58,-16,-38,37,-54,79,-27,-65,33,-38,72,28,127,74,-112,20, 
  /* [9][0][][] */ -16,-127,-39,102,-80,-84,-10,98,64,52,21,72,-92,8,6,-57, 
  /* [10][0][][] */ -27,-24,-56,36,-104,103,64,-101,17,-54,36,-5,66,127,-43,89, 
  /* [11][0][][] */ -33,-120,-49,7,-18,78,26,-21,74,45,62,-94,-1,127,-111,90, 
  /* [12][0][][] */ -6,-63,-61,97,-79,-127,12,42,58,59,-39,92,25,-53,-35,-15, 
  /* [13][0][][] */ -57,-14,-37,-1,-19,-4,28,29,-7,127,-2,-25,47,29,13,-11, 
  /* [14][0][][] */ -127,-9,-31,-72,-13,114,-27,-101,93,-58,91,-4,103,-52,-107,-51, 
  /* [15][0][][] */ -9,-127,83,-39,-46,-33,8,55,19,-49,-70,-28,70,-31,-24,-42, 
  /* [16][0][][] */ -22,0,5,-51,17,39,-2,-16,50,-127,55,-24,-6,8,-79,-72, 
  /* [17][0][][] */ -20,10,19,-52,70,-11,-75,18,90,-24,9,86,111,-59,-64,-127, 
  /* [18][0][][] */ 48,-12,-15,-124,-4,-45,127,-41,37,55,-18,45,-3,89,-9,-117, 
  /* [19][0][][] */ -50,-35,-10,-72,-89,37,-25,-14,30,-13,12,-127,-2,-9,-42,-26, 
  /* [20][0][][] */ 36,46,62,-88,62,-12,-55,88,-124,-127,20,-83,-46,104,-30,-14, 
  /* [21][0][][] */ -11,-64,-77,3,80,56,101,63,-60,-127,-26,-3,68,-83,-36,49, 
  /* [22][0][][] */ 83,-3,81,-24,13,18,71,13,36,127,31,40,10,1,96,-5, 
  /* [23][0][][] */ -79,-28,6,73,101,44,54,-13,-28,11,-40,-75,27,68,18,127, 
  /* [24][0][][] */ 30,-14,47,35,23,-105,26,-70,30,123,-127,70,-13,-82,62,-94, 
  /* [25][0][][] */ 127,-13,84,108,43,-27,-24,51,-123,96,36,-42,-18,73,59,-7, 
  /* [26][0][][] */ -23,26,3,44,-59,115,-19,49,-64,-39,-77,40,4,33,43,-127, 
  /* [27][0][][] */ 30,1,-4,-51,-41,15,-89,0,-93,-15,-70,-53,-81,37,-28,127, 
  /* [28][0][][] */ -51,13,7,12,20,-37,-127,-2,-17,-31,2,-2,9,-53,-60,-38, 
  /* [29][0][][] */ -24,-107,-20,89,-27,12,122,9,74,60,-127,51,17,-25,-64,72, 
  /* [30][0][][] */ 52,-59,-72,43,-127,6,54,-26,-3,-2,19,-17,-22,52,-18,68, 
  /* [31][0][][] */ -127,-22,5,75,-41,-11,-40,14,-23,-58,5,-26,-17,-46,-20,70, 
  /* [32][0][][] */ -127,-103,-120,-2,-106,-44,-5,-39,124,79,-72,-87,40,48,28,-14, 
  /* [33][0][][] */ -39,2,-74,27,-127,-69,44,-15,-113,25,-63,-83,-29,107,53,83, 
  /* [34][0][][] */ 21,38,-14,27,-40,-68,40,48,13,-127,-36,51,-43,40,25,94, 
  /* [35][0][][] */ 21,-13,-51,4,-127,-26,60,-39,8,63,-29,-9,-4,96,65,67, 
  /* [36][0][][] */ -30,-17,-75,47,127,-4,44,88,-90,35,-106,-125,8,27,2,70, 
  /* [37][0][][] */ -125,84,0,-61,26,-127,-54,-26,-44,-40,-30,29,39,-113,43,-107, 
  /* [38][0][][] */ -2,106,0,-54,-93,-43,-119,-28,-60,-69,6,23,-127,-107,69,19, 
  /* [39][0][][] */ -28,-57,4,57,-3,75,92,-30,-32,31,25,-42,-13,96,77,127, 
  /* [40][0][][] */ 90,73,78,75,-125,-10,-9,26,-70,69,9,-73,-127,3,123,61, 
  /* [41][0][][] */ -15,-2,14,42,-74,102,-15,32,-28,43,-96,23,14,29,44,-127, 
  /* [42][0][][] */ -13,-110,42,-59,110,34,67,7,-24,-127,-116,-30,8,-19,21,56, 
  /* [43][0][][] */ -33,-104,-29,-20,107,46,-29,60,-48,-36,-127,-82,112,-20,-51,46, 
  /* [44][0][][] */ -73,-86,-91,-127,42,79,71,2,-1,-105,-55,72,-42,23,54,59, 
  /* [45][0][][] */ 4,-73,-60,-18,-127,37,-29,-94,79,-54,26,-48,21,34,-43,67, 
  /* [46][0][][] */ 63,-62,3,-8,82,-100,-23,117,6,-40,50,70,-38,-60,71,-127, 
  /* [47][0][][] */ -117,-66,-22,58,-27,27,36,57,9,127,82,89,-42,116,4,93, 
  /* [48][0][][] */ 49,-17,-71,-85,51,-66,-10,52,48,-58,-14,35,-57,1,-38,-127, 
  /* [49][0][][] */ 64,63,27,36,-19,-9,33,50,-21,127,-41,27,-51,-74,88,65, 
  /* [50][0][][] */ 13,-14,4,-2,-127,-18,4,-47,44,13,8,46,-14,-41,21,-5, 
  /* [51][0][][] */ 57,16,-11,-127,-36,100,61,-69,25,3,-1,-59,59,56,-31,10, 
  /* [52][0][][] */ 11,-13,3,-92,65,-91,-28,-21,50,4,127,-42,36,7,-25,82, 
  /* [53][0][][] */ -71,-112,52,-27,-47,-127,12,-99,-17,105,-104,87,-20,-5,48,-77, 
  /* [54][0][][] */ 57,64,52,-17,-127,-63,-113,-125,-7,36,49,104,-99,-37,89,-17, 
  /* [55][0][][] */ -1,0,-8,61,-24,8,10,-8,8,127,-1,47,-7,5,2,42, 
  /* [56][0][][] */ 59,-102,-56,64,-56,48,-2,72,127,12,45,60,-30,-21,33,45, 
  /* [57][0][][] */ 86,47,127,-72,74,15,-29,2,109,-44,23,88,68,-76,58,-71, 
  /* [58][0][][] */ 66,-61,13,-66,57,11,-8,127,34,104,-19,70,52,59,65,-2, 
  /* [59][0][][] */ -40,35,20,-50,2,-32,-19,4,10,25,-82,-79,-127,-53,35,-2, 
  /* [60][0][][] */ 17,-29,68,-12,-10,-7,12,-54,36,127,-19,61,-16,-21,-14,-23, 
  /* [61][0][][] */ 49,34,39,-69,-107,-127,-12,-19,-58,-32,-49,-4,-86,-51,83,122, 
  /* [62][0][][] */ -11,82,-44,35,-68,127,-45,16,-58,3,-49,20,-38,26,76,-81, 
  /* [63][0][][] */ 6,-17,-73,-127,-33,-42,56,-6,0,-81,-13,11,-39,49,39,-30, 
  /* [64][0][][] */ -71,32,-1,-78,40,-57,53,98,-127,-35,-79,-40,-27,118,72,93, 
  /* [65][0][][] */ -52,-30,-35,1,50,45,-55,-68,-110,-38,-20,-34,-99,127,-32,30, 
  /* [66][0][][] */ -17,46,-13,31,-43,127,-5,20,-56,3,-26,32,-14,51,37,-61, 
  /* [67][0][][] */ 6,-18,-49,-45,11,-68,80,-127,4,23,35,123,-68,-38,-3,-113, 
  /* [68][0][][] */ -3,-127,-11,54,0,8,7,54,21,48,30,7,-58,34,-1,-3, 
  /* [69][0][][] */ -16,61,45,-127,42,21,-47,71,13,85,1,38,5,-67,7,-71, 
  /* [70][0][][] */ 38,32,49,-37,74,10,-85,-35,-127,-93,-7,22,-18,37,-99,-7, 
  /* [71][0][][] */ -4,-29,72,18,83,-75,37,29,-113,97,-126,-42,16,127,-21,72, 
  /* [72][0][][] */ -5,-2,50,29,-72,-53,-121,-49,-35,61,-31,35,8,127,-127,4, 
  /* [73][0][][] */ 6,-47,-25,-43,64,-113,18,-40,75,103,103,-6,24,-30,-90,127, 
  /* [74][0][][] */ 19,10,-34,112,-84,-16,96,34,75,72,34,127,123,31,-60,22, 
  /* [75][0][][] */ -23,26,-27,34,-26,127,-39,25,-23,46,-51,56,-20,56,21,-75, 
  /* [76][0][][] */ -43,106,-58,34,-104,-7,-16,20,65,40,-42,-16,51,-43,-127,30, 
  /* [77][0][][] */ 102,127,-89,117,67,74,84,44,28,4,88,-39,88,36,64,22, 
  /* [78][0][][] */ 0,-42,-9,-41,53,-91,53,-40,36,10,127,-27,11,6,-34,127, 
  /* [79][0][][] */ -53,57,-3,27,4,-24,-34,-5,-127,-5,56,7,102,37,-77,-31, 
  /* [80][0][][] */ -69,66,80,-22,60,39,-25,-126,-68,85,-79,-68,-55,-127,26,75, 
  /* [81][0][][] */ 104,71,-28,9,36,-24,72,107,-107,119,-64,-39,-38,1,107,127, 
  /* [82][0][][] */ 26,127,-23,-87,-24,-31,83,-94,45,32,-32,45,62,7,23,-37, 
  /* [83][0][][] */ -10,-43,36,40,17,27,-34,-118,69,-20,94,35,60,-51,-51,-127, 
  /* [84][0][][] */ -127,-92,-52,-32,-16,103,108,11,90,63,110,101,70,80,-76,2, 
  /* [85][0][][] */ 93,16,95,-101,91,2,-7,90,13,127,-50,29,-34,77,118,-2, 
  /* [86][0][][] */ -84,77,-52,-11,34,127,13,20,102,52,126,-51,-20,67,-25,-22, 
  /* [87][0][][] */ 11,-53,22,-38,37,-127,22,-27,39,-11,64,-35,33,-35,-37,68, 
  /* [88][0][][] */ -80,36,56,-31,93,-11,38,-8,-44,-73,104,-71,85,117,111,-127, 
  /* [89][0][][] */ -29,42,-14,21,-32,127,-18,35,-51,13,-43,19,-13,68,30,-74, 
  /* [90][0][][] */ 65,-70,34,35,127,9,45,42,-5,-106,-115,-20,-18,-25,-45,40, 
  /* [91][0][][] */ -2,57,-59,-26,27,-56,-101,54,-100,10,-90,-127,-118,-80,-49,25, 
  /* [92][0][][] */ 62,81,81,30,-127,-100,22,7,-27,47,-40,-32,-27,-78,23,-1, 
  /* [93][0][][] */ -2,-127,-107,81,-47,-69,-50,82,78,79,9,71,-64,61,-22,-42, 
  /* [94][0][][] */ 106,21,82,2,25,-67,4,61,10,80,28,78,0,39,127,5, 
  /* [95][0][][] */ -88,-13,6,-41,108,8,59,75,-62,-27,-127,-103,3,3,-38,63, 
};
const TfArray<4, int> tensor_dimension19 = { 4, { 96,1,1,16 } };
const TfArray<96, float> quant19_scale = { 96, { 0.0049723046831786633, 0.0020181403961032629, 0.0051773390732705593, 0.0056689819321036339, 0.0018556040013208985, 0.001434692763723433, 0.0042926538735628128, 0.0025859714951366186, 0.0016432820120826364, 0.0028098654001951218, 0.0012304541887715459, 0.0018910188227891922, 0.003631003899499774, 0.0076107732020318508, 0.0025212441105395555, 0.0035150565672665834, 0.0040055913850665092, 0.0018047726480290294, 0.0031767687760293484, 0.0016523736994713545, 0.0039726370014250278, 0.0017207199707627296, 0.0032073201145976782, 0.0033461940474808216, 0.0011493720812723041, 0.0030036258976906538, 0.0034664415288716555, 0.0028583367820829153, 0.0025112740695476532, 0.0034750823397189379, 0.0026528651360422373, 0.0025922865606844425, 0.0032438675407320261, 0.00088841264368966222, 0.0031445943750441074, 0.0032570851035416126, 0.0024701040238142014, 0.0025838781148195267, 0.0025614560581743717, 0.0026486355345696211, 0.00089026335626840591, 0.003956350963562727, 0.0031497133895754814, 0.002599331084638834, 0.0026028456632047892, 0.0021492075175046921, 0.0015020144637674093, 0.001381411449983716, 0.0035763620398938656, 0.0045790160074830055, 0.0067755207419395447, 0.0022650663740932941, 0.003589199623093009, 0.0020337100140750408, 0.0014994823141023517, 0.0072960779070854187, 0.0038759533781558275, 0.00071774417301639915, 0.0025190501473844051, 0.0033397749066352844, 0.0026523550041019917, 0.0012948755174875259, 0.0031022743787616491, 0.0045322198420763016, 0.00060441275127232075, 0.0020894932094961405, 0.0047698779962956905, 0.0023345111403614283, 0.0032207879703491926, 0.0025294772349298, 0.0051074624061584473, 0.0028050525579601526, 0.0028110924176871777, 0.0028511395212262869, 0.0032588846515864134, 0.0032145839650183916, 0.0037683267146348953, 0.0016617733053863049, 0.002887732582166791, 0.0027740341611206532, 0.0026134569197893143, 0.0037849943619221449, 0.0026587941683828831, 0.0012525890488177538, 0.0021153446286916733, 0.0014656432904303074, 0.001785560161806643, 0.0041400664485991001, 0.0036645499058067799, 0.004098355770111084, 0.0036662169732153416, 0.001205298351123929, 0.0028625517152249813, 0.0024962949100881815, 0.0021940539591014385, 0.0020201434381306171, } };
const TfArray<96, int> quant19_zero = { 96, { 0,0,0,0,0,0,0,0,0,0,0,0,0,0,0,0,0,0,0,0,0,0,0,0,0,0,0,0,0,0,0,0,0,0,0,0,0,0,0,0,0,0,0,0,0,0,0,0,0,0,0,0,0,0,0,0,0,0,0,0,0,0,0,0,0,0,0,0,0,0,0,0,0,0,0,0,0,0,0,0,0,0,0,0,0,0,0,0,0,0,0,0,0,0,0,0 } };
const TfLiteAffineQuantization quant19 = { (TfLiteFloatArray*)&quant19_scale, (TfLiteIntArray*)&quant19_zero, 0 };
const ALIGN(16) int32_t tensor_data20[16] = { -7492, 11002, -19164, 251, 11496, -15091, -39899, -7521, -6732, 7630, -18756, -9679, 2158, -11709, -3661, -1215, };
const TfArray<1, int> tensor_dimension20 = { 1, { 16 } };
const TfArray<16, float> quant20_scale = { 16, { 0.00013064929225947708, 0.0001478456542827189, 0.00016420705651398748, 0.00015702935343142599, 9.4536037067882717e-05, 0.00013774896797258407, 8.5156323621049523e-05, 0.00014900634414516389, 8.6446729255840182e-05, 7.5447365816216916e-05, 0.00017938607197720557, 0.00010235018271487206, 0.00010303279850631952, 7.8731514804530889e-05, 0.00012839578266721219, 0.00011249003728153184, } };
const TfArray<16, int> quant20_zero = { 16, { 0,0,0,0,0,0,0,0,0,0,0,0,0,0,0,0 } };
const TfLiteAffineQuantization quant20 = { (TfLiteFloatArray*)&quant20_scale, (TfLiteIntArray*)&quant20_zero, 0 };
const ALIGN(16) int8_t tensor_data21[16*1*1*48] = { 
  /* [0][0][][] */ 31,36,19,-31,74,72,-36,62,-9,119,12,52,-37,50,-10,49,28,96,66,-82,-71,75,-3,68,63,51,36,52,-66,-50,6,103,-41,-2,-77,71,64,-127,-45,11,12,-33,67,1,-25,-62,-62,-20, 
  /* [1][0][][] */ -40,4,-79,-46,12,99,-63,27,-3,-33,-42,33,55,-28,-29,-22,-30,-34,-9,20,-70,45,-106,-51,-49,-49,52,69,-30,-26,46,-42,6,-67,-41,57,19,-56,127,-39,-23,25,-52,-11,26,49,44,24, 
  /* [2][0][][] */ -3,6,52,-27,-23,-76,17,12,93,85,-70,12,105,-49,127,79,-66,-28,-39,26,85,-74,-34,-91,3,-29,27,-71,35,46,-47,18,22,-23,46,48,-58,15,13,-29,15,32,56,-16,15,-75,97,-60, 
  /* [3][0][][] */ 40,-2,-24,-21,24,106,25,-8,46,-43,29,-11,-45,7,13,53,-31,-63,48,-127,0,-13,-26,-13,-44,86,120,62,-16,-40,31,48,50,-39,85,39,-34,-57,9,31,22,11,-17,6,20,29,-11,-35, 
  /* [4][0][][] */ 123,0,14,-62,105,83,38,13,83,-27,-114,30,49,-42,15,-18,-109,-123,-35,-91,-36,35,-43,-26,-71,123,-85,127,-72,-54,42,87,54,-55,26,-27,-10,15,-47,45,-39,-7,5,47,-56,93,-18,-32, 
  /* [5][0][][] */ -8,-4,-56,1,-19,60,15,-32,59,56,35,87,51,-13,29,-5,-36,127,-28,34,10,5,-69,-22,30,4,-65,-38,-14,29,13,-21,-36,7,36,14,-45,6,-78,9,81,-21,24,45,-14,8,-39,37, 
  /* [6][0][][] */ 52,22,22,61,11,-32,93,-49,9,61,127,103,44,46,-52,50,44,-50,-103,94,64,-55,-56,60,-84,86,93,-4,105,49,-26,-13,112,-58,-110,-16,91,23,7,-5,14,60,57,-41,76,125,41,6, 
  /* [7][0][][] */ -95,-17,-29,21,-60,-51,27,37,79,112,-59,-75,-99,6,-7,-20,-85,100,6,127,-60,44,15,45,-21,-103,-36,-86,26,42,-6,10,-22,13,17,-29,7,-57,117,6,14,45,12,-10,53,68,-37,-1, 
  /* [8][0][][] */ -10,-86,54,-63,66,-55,77,-33,-31,-116,22,8,-29,12,38,23,4,2,-32,99,7,52,-12,27,65,-3,-73,-32,-127,-24,-63,-112,11,-67,-8,103,10,33,115,16,11,-7,75,119,1,-67,-43,86, 
  /* [9][0][][] */ 13,-46,16,-69,29,86,-39,42,19,-37,-37,-24,15,-36,114,-8,-4,-104,53,43,-64,32,53,-34,-19,-85,-23,72,45,63,-44,-19,-57,22,-4,127,-28,-51,-46,-34,-23,3,26,111,39,78,-72,7, 
  /* [10][0][][] */ -9,26,-19,-6,22,25,-59,-47,37,38,62,-3,-29,-6,51,-53,-61,127,1,46,-2,-6,14,28,-43,51,0,88,41,12,-36,-6,81,12,-10,22,-9,-45,-42,32,-79,6,30,-19,31,46,29,41, 
  /* [11][0][][] */ -13,40,-16,35,22,46,8,13,38,7,-127,-79,62,25,4,-37,-11,16,-40,-52,-11,2,112,8,47,0,-28,23,0,19,-18,54,29,-5,-44,3,46,71,87,18,31,-22,59,9,-55,-18,74,1, 
  /* [12][0][][] */ -62,13,41,20,-56,-64,5,10,-35,-36,-127,14,74,-92,26,33,52,100,87,-126,-26,45,-38,-79,2,-17,36,-28,7,16,-11,82,74,61,33,-22,-50,-23,31,4,-31,15,68,-3,45,-13,-26,-23, 
  /* [13][0][][] */ -53,-115,-39,-96,13,20,60,16,-116,21,115,-54,60,41,127,5,109,24,1,-88,72,-80,104,-5,-71,-1,-27,8,-44,-90,-97,14,48,-18,-66,41,22,-53,66,-82,1,56,65,46,61,-24,93,-67, 
  /* [14][0][][] */ 76,15,-49,6,-37,11,-83,-30,-29,55,57,47,-16,-65,16,-40,49,-122,27,17,85,-61,30,-1,-7,124,-94,-2,-50,-31,-95,2,127,42,94,-26,-78,11,-29,66,-10,-53,107,-31,-60,-54,-54,54, 
  /* [15][0][][] */ -77,7,44,14,91,3,2,29,6,81,-22,58,59,-17,-37,-15,7,36,-1,-30,30,-51,-58,-54,48,-63,-35,66,-34,8,15,1,-66,4,127,-15,-91,8,61,-26,-47,-13,13,-2,-33,-33,-11,2, 
};
const TfArray<4, int> tensor_dimension21 = { 4, { 16,1,1,48 } };
const TfArray<16, float> quant21_scale = { 16, { 0.0055525950156152248, 0.0062834401614964008, 0.0069788000546395779, 0.0066737476736307144, 0.0040177814662456512, 0.0058543309569358826, 0.0036191437393426895, 0.0063327695243060589, 0.0036739860661327839, 0.0032065131235867739, 0.0076239081099629402, 0.0043498827144503593, 0.0043788938783109188, 0.0033460892736911774, 0.0054568205960094929, 0.0047808266244828701, } };
const TfArray<16, int> quant21_zero = { 16, { 0,0,0,0,0,0,0,0,0,0,0,0,0,0,0,0 } };
const TfLiteAffineQuantization quant21 = { (TfLiteFloatArray*)&quant21_scale, (TfLiteIntArray*)&quant21_zero, 0 };
const ALIGN(16) int32_t tensor_data22[48] = { 15092, -109, 21626, 419, 14390, -1854, 41751, 222, 10269, 40549, 368, 22586, 1684, 12711, 35838, 19319, 422, -2353, 1470, 34924, -1551, 20665, -551, 14099, 16563, 29110, 213, -3079, -3586, 14909, 19148, -1414, 428, 596, -1182, 19721, 11342, 28687, 3318, 21383, 20089, 490, 1098, 13977, -1399, -592, 46533, 34632, };
const TfArray<1, int> tensor_dimension22 = { 1, { 48 } };
